{"learner":{"attributes":{},"feature_names":["Square_Footage","Bedrooms","Bathrooms","Year_Built","Build_Quality_Rating","Location_City","Location_District","Property_Type","Nearby_Amenities_Score","Market_Trend_Index","Agent_Commission_Percentage","Days_On_Market","Transaction_Type","Revenue_Activity","Revenue_GBP_Monthly"],"feature_types":[],"gradient_booster":{"model":{"gbtree_model_param":{"num_parallel_tree":"1","num_trees":"300"},"iteration_indptr":[0,1,2,3,4,5,6,7,8,9,10,11,12,13,14,15,16,17,18,19,20,21,22,23,24,25,26,27,28,29,30,31,32,33,34,35,36,37,38,39,40,41,42,43,44,45,46,47,48,49,50,51,52,53,54,55,56,57,58,59,60,61,62,63,64,65,66,67,68,69,70,71,72,73,74,75,76,77,78,79,80,81,82,83,84,85,86,87,88,89,90,91,92,93,94,95,96,97,98,99,100,101,102,103,104,105,106,107,108,109,110,111,112,113,114,115,116,117,118,119,120,121,122,123,124,125,126,127,128,129,130,131,132,133,134,135,136,137,138,139,140,141,142,143,144,145,146,147,148,149,150,151,152,153,154,155,156,157,158,159,160,161,162,163,164,165,166,167,168,169,170,171,172,173,174,175,176,177,178,179,180,181,182,183,184,185,186,187,188,189,190,191,192,193,194,195,196,197,198,199,200,201,202,203,204,205,206,207,208,209,210,211,212,213,214,215,216,217,218,219,220,221,222,223,224,225,226,227,228,229,230,231,232,233,234,235,236,237,238,239,240,241,242,243,244,245,246,247,248,249,250,251,252,253,254,255,256,257,258,259,260,261,262,263,264,265,266,267,268,269,270,271,272,273,274,275,276,277,278,279,280,281,282,283,284,285,286,287,288,289,290,291,292,293,294,295,296,297,298,299,300],"tree_info":[0,0,0,0,0,0,0,0,0,0,0,0,0,0,0,0,0,0,0,0,0,0,0,0,0,0,0,0,0,0,0,0,0,0,0,0,0,0,0,0,0,0,0,0,0,0,0,0,0,0,0,0,0,0,0,0,0,0,0,0,0,0,0,0,0,0,0,0,0,0,0,0,0,0,0,0,0,0,0,0,0,0,0,0,0,0,0,0,0,0,0,0,0,0,0,0,0,0,0,0,0,0,0,0,0,0,0,0,0,0,0,0,0,0,0,0,0,0,0,0,0,0,0,0,0,0,0,0,0,0,0,0,0,0,0,0,0,0,0,0,0,0,0,0,0,0,0,0,0,0,0,0,0,0,0,0,0,0,0,0,0,0,0,0,0,0,0,0,0,0,0,0,0,0,0,0,0,0,0,0,0,0,0,0,0,0,0,0,0,0,0,0,0,0,0,0,0,0,0,0,0,0,0,0,0,0,0,0,0,0,0,0,0,0,0,0,0,0,0,0,0,0,0,0,0,0,0,0,0,0,0,0,0,0,0,0,0,0,0,0,0,0,0,0,0,0,0,0,0,0,0,0,0,0,0,0,0,0,0,0,0,0,0,0,0,0,0,0,0,0,0,0,0,0,0,0,0,0,0,0,0,0,0,0,0,0,0,0,0,0,0,0,0,0,0,0,0,0,0,0],"trees":[{"base_weights":[-3.5776778E-3,-5.6205644E5,4.4321303E5,-7.895103E5,-3.3799447E5,1.4395202E5,6.9239525E5,-9.063455E5,-6.716393E5,-4.6478788E5,-2.4491405E5,-8.020789E4,2.4622122E5,4.2848394E5,8.6346975E5,-2.9104334E5,-8.48912E5,-7.5588775E5,-6.179743E5,-5.911606E5,-4.0029544E5,-3.5694775E5,-1.5355411E5,7.306316E4,-1.9431388E5,1.413936E5,4.026486E5,5.5634906E5,1.5254975E5,7.1416306E5,1.011009E6,-2.74519E5,-2.4530555E5,-6.964592E5,-2.4697367E5,-6.930852E5,-5.7210875E5,-5.347342E5,-2.0929428E5,-5.299351E5,-3.732858E5,-2.8498947E5,-4.647041E5,-2.4086278E5,-4.771475E4,-1.06315414E5,3.7482834E5,-1.2108594E5,-3.55124E5,3.911352E4,2.3206753E5,2.7757244E5,4.792056E5,2.9212256E5,8.440483E5,2.7339084E4,2.9887897E5,6.2040675E5,9.443007E5,8.5710556E5,1.5160549E6,-2.31443E5,-1.7361523E5,-2.3019144E5,-1.9497816E5,-1.8017689E5,-1.4051317E5,-1.8782736E5,-1.1797768E5,-1.3360828E5,-1.8354983E5,-1.2244709E5,-8.1580805E4,-1.3218414E5,-3.1741855E4,-1.610734E5,-1.1897901E5,-1.1165122E5,-4.825285E4,-2.9712268E4,1.443032E5,-9.305557E4,-3.11711E3,7.000296E4,1.4888155E5,-9.150686E4,9.588958E3,-1.3131716E5,-8.652576E4,-5.5537496E4,2.7157537E4,4.6161906E4,1.7417856E5,2.4163863E4,9.790821E4,1.2280326E5,1.858901E5,2.4202334E4,1.251155E5,3.3053206E5,1.8577766E5,-5.967278E4,2.2405777E4,1.4890452E5,4.647246E4,1.4190895E5,2.2752739E5,2.4065277E5,3.564223E5,3.8516775E5,1.9427483E5,6.1762406E5,4.1022894E5],"categories":[],"categories_nodes":[],"categories_segments":[],"categories_sizes":[],"default_left":[0,0,0,0,0,0,0,0,0,0,0,0,0,0,0,0,0,0,0,0,0,0,0,0,0,0,0,0,0,0,0,0,0,0,0,0,0,0,0,0,0,0,0,0,0,0,0,0,0,0,0,0,0,0,0,0,0,0,0,0,0,0,0,0,0,0,0,0,0,0,0,0,0,0,0,0,0,0,0,0,0,0,0,0,0,0,0,0,0,0,0,0,0,0,0,0,0,0,0,0,0,0,0,0,0,0,0,0,0,0,0,0,0],"id":0,"left_children":[1,3,5,7,9,11,13,15,17,19,21,23,25,27,29,-1,31,33,35,37,39,41,43,45,47,49,51,53,55,57,59,-1,-1,61,-1,63,65,67,-1,69,71,73,75,77,79,81,83,85,87,89,91,93,95,97,99,101,103,105,107,109,111,-1,-1,-1,-1,-1,-1,-1,-1,-1,-1,-1,-1,-1,-1,-1,-1,-1,-1,-1,-1,-1,-1,-1,-1,-1,-1,-1,-1,-1,-1,-1,-1,-1,-1,-1,-1,-1,-1,-1,-1,-1,-1,-1,-1,-1,-1,-1,-1,-1,-1,-1,-1],"loss_changes":[1.9933842E15,1.7953332E14,3.3352877E14,2.3491257E13,2.0881896E13,4.6648487E13,1.0983748E14,2.386324E12,3.4888892E12,5.8922254E12,1.0467179E13,1.117227E13,2.2850946E13,3.3856757E13,3.1880401E13,0E0,2.2058684E11,7.716513E11,1.4637953E12,1.1411275E12,1.5564475E12,3.4421353E12,5.23722E12,1.4817397E13,4.2669389E12,7.762651E12,5.2292485E12,4.96971E13,5.5983546E12,1.5359441E13,5.6375003E13,0E0,0E0,1.1875752E12,0E0,1.4193525E11,7.261263E11,1.9380662E12,0E0,3.0933202E11,1.3662987E12,7.7333717E12,6.87027E11,3.207894E12,7.049097E12,3.360447E12,1.6368072E12,7.132049E12,5.0187154E11,4.5705006E12,1.2010975E13,2.0404125E12,3.140787E12,9.053468E12,1.7508971E13,1.7930716E12,3.9317154E12,1.038112E13,6.3919515E12,5.0228267E13,1.105793E13,0E0,0E0,0E0,0E0,0E0,0E0,0E0,0E0,0E0,0E0,0E0,0E0,0E0,0E0,0E0,0E0,0E0,0E0,0E0,0E0,0E0,0E0,0E0,0E0,0E0,0E0,0E0,0E0,0E0,0E0,0E0,0E0,0E0,0E0,0E0,0E0,0E0,0E0,0E0,0E0,0E0,0E0,0E0,0E0,0E0,0E0,0E0,0E0,0E0,0E0,0E0,0E0],"parents":[2147483647,0,0,1,1,2,2,3,3,4,4,5,5,6,6,7,7,8,8,9,9,10,10,11,11,12,12,13,13,14,14,16,16,17,17,18,18,19,19,20,20,21,21,22,22,23,23,24,24,25,25,26,26,27,27,28,28,29,29,30,30,33,33,35,35,36,36,37,37,39,39,40,40,41,41,42,42,43,43,44,44,45,45,46,46,47,47,48,48,49,49,50,50,51,51,52,52,53,53,54,54,55,55,56,56,57,57,58,58,59,59,60,60],"right_children":[2,4,6,8,10,12,14,16,18,20,22,24,26,28,30,-1,32,34,36,38,40,42,44,46,48,50,52,54,56,58,60,-1,-1,62,-1,64,66,68,-1,70,72,74,76,78,80,82,84,86,88,90,92,94,96,98,100,102,104,106,108,110,112,-1,-1,-1,-1,-1,-1,-1,-1,-1,-1,-1,-1,-1,-1,-1,-1,-1,-1,-1,-1,-1,-1,-1,-1,-1,-1,-1,-1,-1,-1,-1,-1,-1,-1,-1,-1,-1,-1,-1,-1,-1,-1,-1,-1,-1,-1,-1,-1,-1,-1,-1,-1],"split_conditions":[2.009E3,1.273E3,2.927E3,8.81E2,1.569E3,2.21066E3,3.4657E3,6.78E2,1.07455E3,1.3321E3,1.90916E3,1.41E0,2.591E3,1.93E0,1E0,-2.9104334E5,6.8604E2,1.67E0,1.055E3,1.77E0,2E0,1.78E0,1E0,1.46685E3,2.01E0,1E0,3E0,2.21066E3,2.96712E3,3E0,5.20149E3,-2.74519E5,-2.4530555E5,7.3861E2,-2.4697367E5,3E0,9E0,9.4696E2,-2.0929428E5,2.730905E4,1.486E3,1.21735E3,1.60035E3,1.02E0,3.31397E3,1.12356E3,1.67872E3,1.66027E3,1.86264E3,9.8E-1,3.64025E3,1E0,1.1E0,1.67872E3,1.53E0,2.248E3,2.3E0,3.498E3,7E0,2.17E0,2.33E0,-2.31443E5,-1.7361523E5,-2.3019144E5,-1.9497816E5,-1.8017689E5,-1.4051317E5,-1.8782736E5,-1.1797768E5,-1.3360828E5,-1.8354983E5,-1.2244709E5,-8.1580805E4,-1.3218414E5,-3.1741855E4,-1.610734E5,-1.1897901E5,-1.1165122E5,-4.825285E4,-2.9712268E4,1.443032E5,-9.305557E4,-3.11711E3,7.000296E4,1.4888155E5,-9.150686E4,9.588958E3,-1.3131716E5,-8.652576E4,-5.5537496E4,2.7157537E4,4.6161906E4,1.7417856E5,2.4163863E4,9.790821E4,1.2280326E5,1.858901E5,2.4202334E4,1.251155E5,3.3053206E5,1.8577766E5,-5.967278E4,2.2405777E4,1.4890452E5,4.647246E4,1.4190895E5,2.2752739E5,2.4065277E5,3.564223E5,3.8516775E5,1.9427483E5,6.1762406E5,4.1022894E5],"split_indices":[0,0,0,0,0,14,14,0,14,14,14,10,0,10,12,0,14,10,0,10,1,10,12,14,10,12,1,14,14,2,14,0,0,14,0,1,4,14,0,14,0,14,14,9,14,14,14,14,14,9,14,9,9,14,10,14,10,0,4,10,10,0,0,0,0,0,0,0,0,0,0,0,0,0,0,0,0,0,0,0,0,0,0,0,0,0,0,0,0,0,0,0,0,0,0,0,0,0,0,0,0,0,0,0,0,0,0,0,0,0,0,0,0],"split_type":[0,0,0,0,0,0,0,0,0,0,0,0,0,0,0,0,0,0,0,0,0,0,0,0,0,0,0,0,0,0,0,0,0,0,0,0,0,0,0,0,0,0,0,0,0,0,0,0,0,0,0,0,0,0,0,0,0,0,0,0,0,0,0,0,0,0,0,0,0,0,0,0,0,0,0,0,0,0,0,0,0,0,0,0,0,0,0,0,0,0,0,0,0,0,0,0,0,0,0,0,0,0,0,0,0,0,0,0,0,0,0,0,0],"sum_hessian":[8E3,3.527E3,4.473E3,1.749E3,1.778E3,2.033E3,2.44E3,8.75E2,8.74E2,7.51E2,1.027E3,6.37E2,1.396E3,9.61E2,1.479E3,4.07E2,4.68E2,3.35E2,5.39E2,2.51E2,5E2,4.6E2,5.67E2,2.72E2,3.65E2,8.37E2,5.59E2,6.56E2,3.05E2,7.38E2,7.41E2,1.41E2,3.27E2,1.84E2,1.51E2,1.99E2,3.4E2,1.68E2,8.3E1,8.3E1,4.17E2,2.78E2,1.82E2,3.1E2,2.57E2,1.71E2,1.01E2,2.52E2,1.13E2,3.94E2,4.43E2,2.14E2,3.45E2,3.43E2,3.13E2,1.65E2,1.4E2,5.27E2,2.11E2,5.7E2,1.71E2,1.09E2,7.5E1,6.7E1,1.32E2,2.63E2,7.7E1,1E2,6.8E1,4.4E1,3.9E1,3.08E2,1.09E2,1.48E2,1.3E2,8.5E1,9.7E1,1.16E2,1.94E2,2.35E2,2.2E1,5.4E1,1.17E2,4.8E1,5.3E1,1.14E2,1.38E2,4.8E1,6.5E1,7.3E1,3.21E2,3.63E2,8E1,4.3E1,1.71E2,2.33E2,1.12E2,1.28E2,2.15E2,1.44E2,1.69E2,2.8E1,1.37E2,5.8E1,8.2E1,2.57E2,2.7E2,1.36E2,7.5E1,1.86E2,3.84E2,3.4E1,1.37E2],"tree_param":{"num_deleted":"0","num_feature":"15","num_nodes":"113","size_leaf_vector":"1"}},{"base_weights":[1.3600721E1,-3.6601812E5,3.3755762E5,-5.359113E5,-1.870306E5,1.645897E5,5.29651E5,-6.193975E5,-4.37475E5,-2.6034358E5,-7.587519E4,1.846748E4,2.6055473E5,3.0077572E5,6.314511E5,-6.6872956E5,-5.625121E5,-5.0559212E5,-4.0143188E5,-3.4391684E5,-2.0711369E5,-1.5035595E5,2.7402908E4,9.8892914E4,-1.6452444E5,1.6242736E5,3.6629544E5,4.248146E5,1.1091177E5,5.2813206E5,7.7188044E5,-2.1818211E5,-1.9517338E5,-1.7613727E5,-5.0991956E5,-4.634015E5,-1.6882131E5,-4.6071594E5,-3.625941E5,-3.030855E5,-4.7174134E5,-3.080767E5,-1.6506952E5,-2.3446295E5,-8.110398E4,-4.4303945E4,1.3560445E5,-5.450206E4,2.7246434E5,-1.0016854E5,-2.75617E5,5.975073E4,3.2311553E5,2.8053416E5,7.483241E5,2.0201102E5,6.302294E5,-7.545175E3,2.0804977E5,3.828698E5,6.2799656E5,4.8608425E5,8.28027E5,-1.6147281E5,-1.2094812E5,-1.626184E5,-1.1569507E5,-1.5375402E5,-1.2121613E5,-1.246751E5,-9.6103336E4,-1.2356792E5,-6.4918535E4,-1.2732795E5,-1.6105034E5,-6.8000125E4,-1.15237234E5,-5.737993E4,-1.5467189E3,-5.5402438E4,-1.0302252E5,-8.220716E4,-1.011098E4,-7.5988695E4,-4.1464165E3,-1.9071627E4,5.812623E4,1.8501988E4,-4.3261977E4,1.2376858E5,3.0279568E4,-7.0186445E4,-5.7632065E3,-9.2988766E4,-6.2643105E4,-1.8113594E4,3.3908508E4,5.934109E4,1.2841513E5,1.632822E5,3.937257E4,3.1560462E5,1.9050047E5,7.6430366E3,8.548837E4,2.612364E5,1.4419269E5,-3.9319816E4,6.4080596E3,1.08111695E5,1.2945828E4,8.746494E4,1.550714E5,1.5779988E5,2.1655562E5,1.8320053E5,1.0040487E5,2.0990584E5,2.8387825E5],"categories":[],"categories_nodes":[],"categories_segments":[],"categories_sizes":[],"default_left":[0,0,0,0,0,0,0,0,0,0,0,0,0,0,0,0,0,0,0,0,0,0,0,0,0,0,0,0,0,0,0,0,0,0,0,0,0,0,0,0,0,0,0,0,0,0,0,0,0,0,0,0,0,0,0,0,0,0,0,0,0,0,0,0,0,0,0,0,0,0,0,0,0,0,0,0,0,0,0,0,0,0,0,0,0,0,0,0,0,0,0,0,0,0,0,0,0,0,0,0,0,0,0,0,0,0,0,0,0,0,0,0,0,0,0,0,0,0,0],"id":1,"left_children":[1,3,5,7,9,11,13,15,17,19,21,23,25,27,29,31,33,35,37,39,41,43,45,47,49,51,53,55,57,59,61,-1,-1,-1,63,65,-1,67,69,71,73,75,77,79,81,83,85,87,89,91,93,95,97,99,101,103,105,107,109,111,113,115,117,-1,-1,-1,-1,-1,-1,-1,-1,-1,-1,-1,-1,-1,-1,-1,-1,-1,-1,-1,-1,-1,-1,-1,-1,-1,-1,-1,-1,-1,-1,-1,-1,-1,-1,-1,-1,-1,-1,-1,-1,-1,-1,-1,-1,-1,-1,-1,-1,-1,-1,-1,-1,-1,-1,-1,-1],"loss_changes":[9.886617E14,1.16639E14,1.3823262E14,1.5910438E13,1.522727E13,3.0732781E13,4.5756736E13,2.606911E12,2.0238523E12,4.9423413E12,5.734833E12,1.2820238E13,1.3668029E13,1.4295149E13,1.9382684E13,1.2619822E11,3.4782524E11,4.8663993E11,1.2098218E12,2.1378284E12,2.882376E12,2.5030264E12,2.4345098E12,1.6122965E13,1.8741487E12,1.133195E13,2.0627512E13,1.6714994E13,2.786184E12,1.1205217E13,8.840284E12,0E0,0E0,0E0,2.8796833E11,9.1627926E11,0E0,4.7676234E11,6.862678E11,3.061349E12,9.245924E10,1.1635104E12,2.0517445E12,9.9429856E11,2.176309E12,1.2005427E12,1.4600729E12,3.3646017E12,6.7832444E12,1.8367839E12,1.5784424E11,2.701312E12,3.4394216E12,2.0442585E13,3.3241201E12,2.599292E12,6.454497E12,3.9554544E11,3.3250806E12,3.8150844E12,4.0813095E12,1.625255E12,6.621531E12,0E0,0E0,0E0,0E0,0E0,0E0,0E0,0E0,0E0,0E0,0E0,0E0,0E0,0E0,0E0,0E0,0E0,0E0,0E0,0E0,0E0,0E0,0E0,0E0,0E0,0E0,0E0,0E0,0E0,0E0,0E0,0E0,0E0,0E0,0E0,0E0,0E0,0E0,0E0,0E0,0E0,0E0,0E0,0E0,0E0,0E0,0E0,0E0,0E0,0E0,0E0,0E0,0E0,0E0,0E0,0E0],"parents":[2147483647,0,0,1,1,2,2,3,3,4,4,5,5,6,6,7,7,8,8,9,9,10,10,11,11,12,12,13,13,14,14,15,15,16,16,17,17,18,18,19,19,20,20,21,21,22,22,23,23,24,24,25,25,26,26,27,27,28,28,29,29,30,30,34,34,35,35,37,37,38,38,39,39,40,40,41,41,42,42,43,43,44,44,45,45,46,46,47,47,48,48,49,49,50,50,51,51,52,52,53,53,54,54,55,55,56,56,57,57,58,58,59,59,60,60,61,61,62,62],"right_children":[2,4,6,8,10,12,14,16,18,20,22,24,26,28,30,32,34,36,38,40,42,44,46,48,50,52,54,56,58,60,62,-1,-1,-1,64,66,-1,68,70,72,74,76,78,80,82,84,86,88,90,92,94,96,98,100,102,104,106,108,110,112,114,116,118,-1,-1,-1,-1,-1,-1,-1,-1,-1,-1,-1,-1,-1,-1,-1,-1,-1,-1,-1,-1,-1,-1,-1,-1,-1,-1,-1,-1,-1,-1,-1,-1,-1,-1,-1,-1,-1,-1,-1,-1,-1,-1,-1,-1,-1,-1,-1,-1,-1,-1,-1,-1,-1,-1,-1,-1],"split_conditions":[2.153E3,1.35E3,3.108E3,9.77E2,1.827E3,2.63873E3,3.06499E3,7.52E2,1.0918E3,1.60035E3,4E0,1.93E0,1E0,1.63E0,4E0,4.4159E2,1.09E0,1.64E0,2E0,2.04E0,1.01E0,2.02524E3,1.08E0,1.73985E3,2.39E0,2.765E3,4.25603E3,2.02524E3,2.56151E3,1.05E0,9.8E-1,-2.1818211E5,-1.9517338E5,-1.7613727E5,5E0,7.0457E2,-1.6882131E5,1E0,1.151E3,1.03631E3,2.42E0,2.730905E4,4E0,1.94E0,9.9E-1,1.25834E3,1.95113E3,1.25E0,1.62E0,2.00255E3,2.42688E3,1E0,2E0,2.24E0,2.44E0,1.54754E3,1.29E0,2.00255E3,2.11E0,3.685E3,6E0,5.668572E4,6E0,-1.6147281E5,-1.2094812E5,-1.626184E5,-1.1569507E5,-1.5375402E5,-1.2121613E5,-1.246751E5,-9.6103336E4,-1.2356792E5,-6.4918535E4,-1.2732795E5,-1.6105034E5,-6.8000125E4,-1.15237234E5,-5.737993E4,-1.5467189E3,-5.5402438E4,-1.0302252E5,-8.220716E4,-1.011098E4,-7.5988695E4,-4.1464165E3,-1.9071627E4,5.812623E4,1.8501988E4,-4.3261977E4,1.2376858E5,3.0279568E4,-7.0186445E4,-5.7632065E3,-9.2988766E4,-6.2643105E4,-1.8113594E4,3.3908508E4,5.934109E4,1.2841513E5,1.632822E5,3.937257E4,3.1560462E5,1.9050047E5,7.6430366E3,8.548837E4,2.612364E5,1.4419269E5,-3.9319816E4,6.4080596E3,1.08111695E5,1.2945828E4,8.746494E4,1.550714E5,1.5779988E5,2.1655562E5,1.8320053E5,1.0040487E5,2.0990584E5,2.8387825E5],"split_indices":[0,0,0,0,0,14,14,0,14,14,1,10,12,10,1,14,9,10,2,10,9,14,9,14,10,0,14,14,14,9,9,0,0,0,1,14,0,12,0,14,10,14,2,10,9,14,14,10,10,14,14,9,2,10,10,14,10,14,10,0,4,14,4,0,0,0,0,0,0,0,0,0,0,0,0,0,0,0,0,0,0,0,0,0,0,0,0,0,0,0,0,0,0,0,0,0,0,0,0,0,0,0,0,0,0,0,0,0,0,0,0,0,0,0,0,0,0,0,0],"split_type":[0,0,0,0,0,0,0,0,0,0,0,0,0,0,0,0,0,0,0,0,0,0,0,0,0,0,0,0,0,0,0,0,0,0,0,0,0,0,0,0,0,0,0,0,0,0,0,0,0,0,0,0,0,0,0,0,0,0,0,0,0,0,0,0,0,0,0,0,0,0,0,0,0,0,0,0,0,0,0,0,0,0,0,0,0,0,0,0,0,0,0,0,0,0,0,0,0,0,0,0,0,0,0,0,0,0,0,0,0,0,0,0,0,0,0,0,0,0,0],"sum_hessian":[8E3,3.838E3,4.162E3,1.968E3,1.87E3,2.191E3,1.971E3,1.062E3,9.06E2,1.126E3,7.44E2,8.69E2,1.322E3,6.08E2,1.363E3,5.63E2,4.99E2,3.09E2,5.97E2,4.36E2,6.9E2,4.32E2,3.12E2,6.04E2,2.65E2,6.87E2,6.35E2,3.67E2,2.41E2,7.88E2,5.75E2,1.24E2,4.39E2,3.33E2,1.66E2,1.83E2,1.26E2,2.32E2,3.65E2,3.33E2,1.03E2,2.01E2,4.89E2,1.94E2,2.38E2,1.88E2,1.24E2,3.21E2,2.83E2,1.69E2,9.6E1,4.2E2,2.67E2,5.2E2,1.15E2,1.77E2,1.9E2,1.09E2,1.32E2,3.23E2,4.65E2,9.6E1,4.79E2,1.28E2,3.8E1,8.8E1,9.5E1,1.17E2,1.15E2,1.58E2,2.07E2,1.46E2,1.87E2,6.4E1,3.9E1,9.9E1,1.02E2,4.2E2,6.9E1,1.35E2,5.9E1,4.6E1,1.92E2,2.3E1,1.65E2,2.8E1,9.6E1,1.4E2,1.81E2,1.55E2,1.28E2,6.3E1,1.06E2,6.1E1,3.5E1,1.29E2,2.91E2,1.23E2,1.44E2,1.87E2,3.33E2,2.9E1,8.6E1,5.7E1,1.2E2,7.1E1,1.19E2,2E1,8.9E1,6.8E1,6.4E1,1.94E2,1.29E2,2.26E2,2.39E2,5.1E1,4.5E1,2.33E2,2.46E2],"tree_param":{"num_deleted":"0","num_feature":"15","num_nodes":"119","size_leaf_vector":"1"}},{"base_weights":[5.1830277E0,-2.3815523E5,2.572333E5,-3.6171003E5,-9.648966E4,1.6246261E5,4.1535666E5,-4.2718788E5,-2.86257E5,-1.7577936E5,-4.0902223E4,6.1328316E4,2.4431248E5,2.916156E5,5.252367E5,-4.6764656E5,-3.8607812E5,-3.2233797E5,-2.3543252E5,-7.418597E4,-2.3085394E5,-1.15532016E5,6.172981E3,1.2201357E5,-1.0555836E5,1.5027367E5,3.5917225E5,4.1411625E5,1.28401E5,3.9515738E5,7.146567E5,-1.5008744E5,-4.4256262E5,-4.5694266E5,-3.675509E5,-3.719485E5,-2.9361303E5,-2.9129322E5,-1.8972069E5,-1.9765112E5,7.378162E4,-3.154718E5,-1.7424453E5,-2.458003E4,-1.7816334E5,-5.210122E4,7.75624E4,2.6217756E4,2.721537E5,-4.9052938E4,-1.8313978E5,5.797099E4,2.3493405E5,7.5809475E5,3.0051588E5,2.2955184E5,6.784917E5,2.276245E5,3.959543E3,2.705434E5,5.0417078E5,1.112764E6,6.1823044E5,-1.330237E5,-2.2665742E4,-1.23505766E5,-1.5334898E5,-1.1720919E5,-9.929029E4,-1.2241222E5,-1.02793055E5,-9.778643E4,-7.701368E4,-7.715878E4,-1.122898E5,-7.436107E4,-3.3612766E4,-8.4088305E4,-3.4060035E4,5.3932026E3,7.967708E4,-1.0938632E5,-8.249051E4,-3.1278262E4,-8.796689E4,5.528333E4,-2.4410807E4,-7.646613E4,-4.1700785E4,-5.3967965E4,-6.9670757E3,6.2589297E4,1.2190227E4,-3.9026113E4,2.447803E4,1.6397012E5,5.895051E4,-3.6126117E4,9.286954E3,-6.339562E4,-3.5541992E4,-3.9201824E4,2.66727E4,2.5609264E4,9.1184336E4,2.0145811E5,3.2805006E5,6.088895E4,1.7815919E5,9.5990695E4,2.2330557E4,2.3509572E5,1.3785016E5,4.947187E4,1.1506864E5,1.6451045E4,-2.8347354E4,6.0177855E4,1.7378419E5,1.3167923E5,2.1355733E5,2.6152195E5,4.0984072E5,1.6060125E5,3.8583222E5],"categories":[],"categories_nodes":[],"categories_segments":[],"categories_sizes":[],"default_left":[0,0,0,0,0,0,0,0,0,0,0,0,0,0,0,0,0,0,0,0,0,0,0,0,0,0,0,0,0,0,0,0,0,0,0,0,0,0,0,0,0,0,0,0,0,0,0,0,0,0,0,0,0,0,0,0,0,0,0,0,0,0,0,0,0,0,0,0,0,0,0,0,0,0,0,0,0,0,0,0,0,0,0,0,0,0,0,0,0,0,0,0,0,0,0,0,0,0,0,0,0,0,0,0,0,0,0,0,0,0,0,0,0,0,0,0,0,0,0,0,0,0,0,0,0],"id":2,"left_children":[1,3,5,7,9,11,13,15,17,19,21,23,25,27,29,31,33,35,37,39,41,43,45,47,49,51,53,55,57,59,61,-1,63,65,67,69,71,73,75,77,79,81,83,85,87,89,91,93,95,97,99,101,103,105,107,109,111,113,115,117,119,121,123,-1,-1,-1,-1,-1,-1,-1,-1,-1,-1,-1,-1,-1,-1,-1,-1,-1,-1,-1,-1,-1,-1,-1,-1,-1,-1,-1,-1,-1,-1,-1,-1,-1,-1,-1,-1,-1,-1,-1,-1,-1,-1,-1,-1,-1,-1,-1,-1,-1,-1,-1,-1,-1,-1,-1,-1,-1,-1,-1,-1,-1,-1],"loss_changes":[4.9021495E14,7.269199E13,5.758157E13,1.0840665E13,8.5301595E12,1.9909745E13,1.9439643E13,1.7920751E12,1.8202608E12,4.447854E12,4.005776E12,1.0930388E13,1.4311729E13,1.3542669E13,1.8492972E13,2.6417404E11,6.119238E11,7.486749E11,1.0503984E12,5.166396E12,2.4215479E12,2.5077523E12,2.916154E12,1.1369658E13,1.2535422E12,5.714323E12,1.3764993E13,1.8776435E13,3.6169208E12,6.0310065E12,1.1173961E13,0E0,7.377781E10,8.1570824E10,2.7375383E11,8.970358E10,3.7699033E11,4.4997542E11,1.0608113E12,1.0387472E12,1.376008E12,3.0982904E11,2.5673104E12,2.1618161E12,7.487598E11,1.4202898E12,1.5161672E12,4.1998683E12,6.2866535E12,9.6301954E11,1.9545457E11,2.065982E12,3.917201E12,1.4723643E12,1.4846104E13,3.2019789E12,3.3015632E12,1.5309105E12,6.6134796E11,4.5054175E12,2.9529788E12,2.4121358E12,1.3207427E13,0E0,0E0,0E0,0E0,0E0,0E0,0E0,0E0,0E0,0E0,0E0,0E0,0E0,0E0,0E0,0E0,0E0,0E0,0E0,0E0,0E0,0E0,0E0,0E0,0E0,0E0,0E0,0E0,0E0,0E0,0E0,0E0,0E0,0E0,0E0,0E0,0E0,0E0,0E0,0E0,0E0,0E0,0E0,0E0,0E0,0E0,0E0,0E0,0E0,0E0,0E0,0E0,0E0,0E0,0E0,0E0,0E0,0E0,0E0,0E0,0E0,0E0],"parents":[2147483647,0,0,1,1,2,2,3,3,4,4,5,5,6,6,7,7,8,8,9,9,10,10,11,11,12,12,13,13,14,14,15,15,16,16,17,17,18,18,19,19,20,20,21,21,22,22,23,23,24,24,25,25,26,26,27,27,28,28,29,29,30,30,32,32,33,33,34,34,35,35,36,36,37,37,38,38,39,39,40,40,41,41,42,42,43,43,44,44,45,45,46,46,47,47,48,48,49,49,50,50,51,51,52,52,53,53,54,54,55,55,56,56,57,57,58,58,59,59,60,60,61,61,62,62],"right_children":[2,4,6,8,10,12,14,16,18,20,22,24,26,28,30,32,34,36,38,40,42,44,46,48,50,52,54,56,58,60,62,-1,64,66,68,70,72,74,76,78,80,82,84,86,88,90,92,94,96,98,100,102,104,106,108,110,112,114,116,118,120,122,124,-1,-1,-1,-1,-1,-1,-1,-1,-1,-1,-1,-1,-1,-1,-1,-1,-1,-1,-1,-1,-1,-1,-1,-1,-1,-1,-1,-1,-1,-1,-1,-1,-1,-1,-1,-1,-1,-1,-1,-1,-1,-1,-1,-1,-1,-1,-1,-1,-1,-1,-1,-1,-1,-1,-1,-1,-1,-1,-1,-1,-1,-1],"split_conditions":[2.303E3,1.454E3,3.352E3,1.028E3,1.90916E3,3.02671E3,4.11707E3,7.62E2,4E0,1.44E0,1.827E3,2.07E0,1E0,1.87E0,1E0,6.08E2,6.6047E2,1.01E0,1.46685E3,1.13933E3,1.41998E3,2.263258E4,4E0,2.11197E3,2.49E0,2.805E3,1.96E0,2.60923E3,2.36E0,2E0,2.1E0,-1.5008744E5,2.827077E4,1.47E0,7E0,1.215E3,1.50272E3,2.08E0,1E0,9.2901E2,1.51117E3,1.15655E3,2.19E0,2.12E0,1.01E0,9.9E-1,1.74E0,1.3467E3,1.44E0,2.53776E3,2.79359E3,9.3E-1,1.01E0,3.9512E3,4.47669E3,1.38E0,1.68E0,3.68955E3,2.73E0,9E0,3.841E3,4.67073E3,6.44045E3,-1.330237E5,-2.2665742E4,-1.23505766E5,-1.5334898E5,-1.1720919E5,-9.929029E4,-1.2241222E5,-1.02793055E5,-9.778643E4,-7.701368E4,-7.715878E4,-1.122898E5,-7.436107E4,-3.3612766E4,-8.4088305E4,-3.4060035E4,5.3932026E3,7.967708E4,-1.0938632E5,-8.249051E4,-3.1278262E4,-8.796689E4,5.528333E4,-2.4410807E4,-7.646613E4,-4.1700785E4,-5.3967965E4,-6.9670757E3,6.2589297E4,1.2190227E4,-3.9026113E4,2.447803E4,1.6397012E5,5.895051E4,-3.6126117E4,9.286954E3,-6.339562E4,-3.5541992E4,-3.9201824E4,2.66727E4,2.5609264E4,9.1184336E4,2.0145811E5,3.2805006E5,6.088895E4,1.7815919E5,9.5990695E4,2.2330557E4,2.3509572E5,1.3785016E5,4.947187E4,1.1506864E5,1.6451045E4,-2.8347354E4,6.0177855E4,1.7378419E5,1.3167923E5,2.1355733E5,2.6152195E5,4.0984072E5,1.6060125E5,3.8583222E5],"split_indices":[0,0,0,0,14,14,14,0,1,10,0,10,12,10,12,0,14,9,14,14,14,14,1,14,10,0,10,14,10,2,10,0,14,10,4,0,14,10,12,14,14,14,10,10,9,9,10,14,10,14,14,9,9,14,14,10,10,14,10,8,0,14,14,0,0,0,0,0,0,0,0,0,0,0,0,0,0,0,0,0,0,0,0,0,0,0,0,0,0,0,0,0,0,0,0,0,0,0,0,0,0,0,0,0,0,0,0,0,0,0,0,0,0,0,0,0,0,0,0,0,0,0,0,0,0],"split_type":[0,0,0,0,0,0,0,0,0,0,0,0,0,0,0,0,0,0,0,0,0,0,0,0,0,0,0,0,0,0,0,0,0,0,0,0,0,0,0,0,0,0,0,0,0,0,0,0,0,0,0,0,0,0,0,0,0,0,0,0,0,0,0,0,0,0,0,0,0,0,0,0,0,0,0,0,0,0,0,0,0,0,0,0,0,0,0,0,0,0,0,0,0,0,0,0,0,0,0,0,0,0,0,0,0,0,0,0,0,0,0,0,0,0,0,0,0,0,0,0,0,0,0,0,0],"sum_hessian":[8E3,4.154E3,3.846E3,2.218E3,1.936E3,2.406E3,1.44E3,1.185E3,1.033E3,7.97E2,1.139E3,1.077E3,1.329E3,6.79E2,7.61E2,5.92E2,5.93E2,6.01E2,4.32E2,2.81E2,5.16E2,4.4E2,6.99E2,7.9E2,2.87E2,7.32E2,5.97E2,3.87E2,2.92E2,4.53E2,3.08E2,2.49E2,3.43E2,1.18E2,4.75E2,2.16E2,3.85E2,1.92E2,2.4E2,1.53E2,1.28E2,2.05E2,3.11E2,1.8E2,2.6E2,3.85E2,3.14E2,4.83E2,3.07E2,1.67E2,1.2E2,3.51E2,3.81E2,7.5E1,5.22E2,2.29E2,1.58E2,1.62E2,1.3E2,2.13E2,2.4E2,5.8E1,2.5E2,3.42E2,1E0,6.9E1,4.9E1,2.85E2,1.9E2,9.1E1,1.25E2,2.01E2,1.84E2,1.39E2,5.3E1,1.36E2,1.04E2,7.6E1,7.7E1,1E2,2.8E1,8.9E1,1.16E2,1.97E2,1.14E2,3.8E1,1.42E2,8.6E1,1.74E2,7E1,3.15E2,6.8E1,2.46E2,1.26E2,3.57E2,6.5E1,2.42E2,8.8E1,7.9E1,8.2E1,3.8E1,4.9E1,3.02E2,1.21E2,2.6E2,6.2E1,1.3E1,3.93E2,1.29E2,1.44E2,8.5E1,1.05E2,5.3E1,1.17E2,4.5E1,8.6E1,4.4E1,1.75E2,3.8E1,1.85E2,5.5E1,3.2E1,2.6E1,2.24E2,2.6E1],"tree_param":{"num_deleted":"0","num_feature":"15","num_nodes":"125","size_leaf_vector":"1"}},{"base_weights":[1.8886371E2,-1.8665748E5,1.6226766E5,-2.6753653E5,-1.0147969E5,9.6276195E4,2.9244356E5,-3.0881322E5,-2.2201962E5,-1.7035544E5,-7.4296086E4,1.6344198E4,1.5508134E5,2.0251619E5,3.6924662E5,-3.4406772E5,-2.8391044E5,-2.793744E5,-2.0354748E5,-9.181311E4,-2.2123847E5,-1.1887981E5,-3.4153418E4,8.147486E4,-8.044733E4,2.2774386E5,9.027657E4,2.7462906E5,5.306114E4,2.778859E5,4.965176E5,-3.1283444E5,-1.1515949E5,-3.2209353E5,-2.4790484E5,-2.3621511E5,-9.796945E4,-2.4766288E5,-1.794245E5,-2.0879894E5,-2.0161752E4,-1.0059124E5,-2.0597203E5,-7.862227E4,-1.7443631E5,3.04678E4,-7.772884E4,-5.6508312E4,1.7055402E5,-1.3803995E5,-2.7299576E4,5.710204E5,1.8723355E5,5.8935406E4,2.9094562E5,1.6544645E5,4.615528E5,1.0558258E5,-4.646027E4,1.5262573E4,3.265308E5,4.7298697E5,4.982663E5,-1.11468055E5,-7.786476E4,-1.12395945E5,-8.929137E4,-8.171801E4,-3.9852746E4,-9.3884805E4,-5.3156164E4,-8.288244E4,-6.038132E4,-8.163809E4,-4.9017207E4,-9.1489016E4,-4.9436516E4,2.2555078E4,-2.2020688E4,-4.373177E4,-7.180441E4,-2.8290064E4,7.9010195E4,-6.648369E4,-3.852952E4,-1.8234834E4,3.1445938E4,-5.3255688E4,-5.1016245E3,-6.1416957E4,-4.514157E3,1.0076073E5,2.9513969E4,-5.884279E4,-3.155657E4,1.3409339E4,-3.525977E4,2.8275334E5,1.5694283E5,2.8170887E4,1.07789234E5,-1.6081542E4,3.0705252E4,6.3957973E4,1.4993056E5,8.391358E4,2.6625148E4,1.8018983E5,9.188174E4,1.735257E4,6.942238E4,-2.573375E4,4.0147854E3,-1.5466695E4,1.3040734E5,7.3250016E4,1.3462508E5,2.0438164E5,9.982546E4],"categories":[],"categories_nodes":[],"categories_segments":[],"categories_sizes":[],"default_left":[0,0,0,0,0,0,0,0,0,0,0,0,0,0,0,0,0,0,0,0,0,0,0,0,0,0,0,0,0,0,0,0,0,0,0,0,0,0,0,0,0,0,0,0,0,0,0,0,0,0,0,0,0,0,0,0,0,0,0,0,0,0,0,0,0,0,0,0,0,0,0,0,0,0,0,0,0,0,0,0,0,0,0,0,0,0,0,0,0,0,0,0,0,0,0,0,0,0,0,0,0,0,0,0,0,0,0,0,0,0,0,0,0,0,0,0,0,0,0],"id":3,"left_children":[1,3,5,7,9,11,13,15,17,19,21,23,25,27,29,31,33,35,37,39,41,43,45,47,49,51,53,55,57,59,61,63,-1,65,67,69,-1,71,73,75,77,-1,79,81,83,85,87,89,91,93,95,97,99,101,103,105,107,109,111,113,115,117,-1,-1,-1,-1,-1,-1,-1,-1,-1,-1,-1,-1,-1,-1,-1,-1,-1,-1,-1,-1,-1,-1,-1,-1,-1,-1,-1,-1,-1,-1,-1,-1,-1,-1,-1,-1,-1,-1,-1,-1,-1,-1,-1,-1,-1,-1,-1,-1,-1,-1,-1,-1,-1,-1,-1,-1,-1],"loss_changes":[2.4233122E14,2.5579642E13,3.6782125E13,3.5124024E12,3.3799337E12,1.3370141E13,9.87777E12,7.776156E11,9.072489E11,2.0258813E12,2.3243517E12,7.6155993E12,7.69729E12,7.1633344E12,8.885012E12,3.8705876E11,7.312853E11,3.6889847E11,6.9198676E11,1.6973755E12,4.7076344E11,1.3640118E12,1.9340735E12,8.884048E12,1.4838383E12,1.0628706E13,5.441879E12,9.087199E12,1.144393E12,5.794997E12,8.0640863E12,6.3579986E11,0E0,2.5225173E11,8.316655E11,4.7902674E11,0E0,2.6561479E11,6.258919E11,2.7562895E11,6.502009E11,0E0,5.196533E11,1.9496829E12,5.314781E11,1.8857226E12,2.4814166E12,1.7421434E12,5.204871E12,4.2410757E11,1.655374E12,9.476065E11,1.1078965E13,3.6797552E12,1.7931205E12,2.4728285E12,3.379443E12,8.4561415E11,1.799726E11,2.0402446E12,3.7458952E12,9.06176E12,0E0,0E0,0E0,0E0,0E0,0E0,0E0,0E0,0E0,0E0,0E0,0E0,0E0,0E0,0E0,0E0,0E0,0E0,0E0,0E0,0E0,0E0,0E0,0E0,0E0,0E0,0E0,0E0,0E0,0E0,0E0,0E0,0E0,0E0,0E0,0E0,0E0,0E0,0E0,0E0,0E0,0E0,0E0,0E0,0E0,0E0,0E0,0E0,0E0,0E0,0E0,0E0,0E0,0E0,0E0,0E0,0E0],"parents":[2147483647,0,0,1,1,2,2,3,3,4,4,5,5,6,6,7,7,8,8,9,9,10,10,11,11,12,12,13,13,14,14,15,15,16,16,17,17,18,18,19,19,20,20,21,21,22,22,23,23,24,24,25,25,26,26,27,27,28,28,29,29,30,30,31,31,33,33,34,34,35,35,37,37,38,38,39,39,40,40,42,42,43,43,44,44,45,45,46,46,47,47,48,48,49,49,50,50,51,51,52,52,53,53,54,54,55,55,56,56,57,57,58,58,59,59,60,60,61,61],"right_children":[2,4,6,8,10,12,14,16,18,20,22,24,26,28,30,32,34,36,38,40,42,44,46,48,50,52,54,56,58,60,62,64,-1,66,68,70,-1,72,74,76,78,-1,80,82,84,86,88,90,92,94,96,98,100,102,104,106,108,110,112,114,116,118,-1,-1,-1,-1,-1,-1,-1,-1,-1,-1,-1,-1,-1,-1,-1,-1,-1,-1,-1,-1,-1,-1,-1,-1,-1,-1,-1,-1,-1,-1,-1,-1,-1,-1,-1,-1,-1,-1,-1,-1,-1,-1,-1,-1,-1,-1,-1,-1,-1,-1,-1,-1,-1,-1,-1,-1,-1],"split_conditions":[2.095E3,1.326E3,3.352E3,9.42E2,1.43283E3,2.82366E3,4.06527E3,7.2261E2,8.9529E2,1.36E0,6E0,1.79E0,3.485699E4,2.03E0,1E0,1.72E0,1E0,1.45E0,3E0,8.6649E2,8.4909E2,1.8E1,2.09E0,1.54754E3,2.29212E3,1.86E0,4E0,2.8469E3,2.58E0,9.5E-1,8.15711E3,4.0599E2,-1.1515949E5,1E0,1.19979E3,5.9538E2,-9.796945E4,1.215E3,9.4E-1,6.8604E2,1.19E0,-1.0059124E5,1.62E0,1.7E1,1E0,1E0,2.40199E3,1.10827E3,1.3E0,1.86264E3,2.3E0,1.29E0,4.0018E3,4E0,8E0,1.28E0,1.69E0,3.75748E3,3.75748E3,4E0,7E0,2.4E0,4.982663E5,-1.11468055E5,-7.786476E4,-1.12395945E5,-8.929137E4,-8.171801E4,-3.9852746E4,-9.3884805E4,-5.3156164E4,-8.288244E4,-6.038132E4,-8.163809E4,-4.9017207E4,-9.1489016E4,-4.9436516E4,2.2555078E4,-2.2020688E4,-4.373177E4,-7.180441E4,-2.8290064E4,7.9010195E4,-6.648369E4,-3.852952E4,-1.8234834E4,3.1445938E4,-5.3255688E4,-5.1016245E3,-6.1416957E4,-4.514157E3,1.0076073E5,2.9513969E4,-5.884279E4,-3.155657E4,1.3409339E4,-3.525977E4,2.8275334E5,1.5694283E5,2.8170887E4,1.07789234E5,-1.6081542E4,3.0705252E4,6.3957973E4,1.4993056E5,8.391358E4,2.6625148E4,1.8018983E5,9.188174E4,1.735257E4,6.942238E4,-2.573375E4,4.0147854E3,-1.5466695E4,1.3040734E5,7.3250016E4,1.3462508E5,2.0438164E5,9.982546E4],"split_indices":[0,0,0,0,14,14,14,14,14,10,4,10,14,10,12,10,12,10,1,14,14,6,10,14,14,10,2,14,10,9,14,14,0,9,14,14,0,0,9,14,10,0,10,6,12,12,14,14,10,14,10,10,14,4,8,10,10,14,14,2,4,10,0,0,0,0,0,0,0,0,0,0,0,0,0,0,0,0,0,0,0,0,0,0,0,0,0,0,0,0,0,0,0,0,0,0,0,0,0,0,0,0,0,0,0,0,0,0,0,0,0,0,0,0,0,0,0,0,0],"split_type":[0,0,0,0,0,0,0,0,0,0,0,0,0,0,0,0,0,0,0,0,0,0,0,0,0,0,0,0,0,0,0,0,0,0,0,0,0,0,0,0,0,0,0,0,0,0,0,0,0,0,0,0,0,0,0,0,0,0,0,0,0,0,0,0,0,0,0,0,0,0,0,0,0,0,0,0,0,0,0,0,0,0,0,0,0,0,0,0,0,0,0,0,0,0,0,0,0,0,0,0,0,0,0,0,0,0,0,0,0,0,0,0,0,0,0,0,0,0,0],"sum_hessian":[8E3,3.716E3,4.284E3,1.905E3,1.811E3,2.844E3,1.44E3,9.96E2,9.09E2,5.11E2,1.3E3,1.206E3,1.638E3,6.65E2,7.75E2,4.07E2,5.89E2,2.18E2,6.91E2,2.02E2,3.09E2,6.15E2,6.85E2,7.21E2,4.85E2,7.71E2,8.67E2,4.48E2,2.17E2,4.53E2,3.22E2,2.33E2,1.74E2,2.82E2,3.07E2,1.17E2,1.01E2,2.41E2,4.5E2,7.6E1,1.26E2,3.4E1,2.75E2,3.58E2,2.57E2,2.76E2,4.09E2,2.83E2,4.38E2,2.32E2,2.53E2,8E1,6.91E2,7.51E2,1.16E2,2.84E2,1.64E2,1.42E2,7.5E1,7.1E1,3.82E2,3.17E2,5E0,1.08E2,1.25E2,8.5E1,1.97E2,2.52E2,5.5E1,4.9E1,6.8E1,1.46E2,9.5E1,6.4E1,3.86E2,2.2E1,5.4E1,4.5E1,8.1E1,1E2,1.75E2,3.43E2,1.5E1,1.25E2,1.32E2,1.24E2,1.52E2,1.54E2,2.55E2,6.1E1,2.22E2,1.32E2,3.06E2,8.2E1,1.5E2,1.41E2,1.12E2,7E0,7.3E1,4.49E2,2.42E2,2.09E2,5.42E2,8.6E1,3E1,1.13E2,1.71E2,8.5E1,7.9E1,1.04E2,3.8E1,4.5E1,3E1,6.2E1,9E0,2.3E2,1.52E2,1.26E2,1.91E2],"tree_param":{"num_deleted":"0","num_feature":"15","num_nodes":"119","size_leaf_vector":"1"}},{"base_weights":[2.2301251E2,-1.1831596E5,1.28252445E5,-1.7703536E5,-4.4629656E4,9.0050695E4,2.3633764E5,-2.0544373E5,-1.3264195E5,-7.741371E4,3.836229E3,2.7628637E4,1.3404392E5,1.6367247E5,3.0127578E5,-2.4842338E5,-1.9163481E5,-1.6684302E5,-1.0889365E5,-1.0593257E5,-3.3738344E4,-6.575983E4,4.5406812E4,-3.097588E4,5.5827254E4,5.4205695E4,1.8026247E5,1.357723E5,2.9607366E5,2.3803162E5,4.1286388E5,-2.2267689E5,-8.598813E4,-2.2021436E5,-1.7109103E5,-1.8322298E5,-1.25561625E5,-1.3937608E5,-7.868328E4,-9.014567E4,-1.7275E5,-1.0010391E5,-7.0414424E3,-2.3164516E4,-1.3831914E5,1.0729274E4,1.467266E5,4.7849E4,-7.973656E4,9.2027336E4,-9.631437E3,2.9233602E4,1.5982044E5,1.0764799E5,2.4636764E5,1.1956139E5,3.5229272E5,1.4717588E5,4.7318784E5,1.7174656E5,3.0177666E5,3.548174E5,6.883801E5,-8.713328E4,-5.8496707E4,-7.694614E4,-5.8493215E4,-5.9213594E4,-4.1017547E4,-6.559898E4,-4.9398953E4,-7.733257E3,-4.204466E4,-4.427125E4,-6.329807E2,-1.2356954E4,-3.492812E4,-6.21203E4,-2.2856904E4,-6.846587E4,-3.8805387E4,-2.4172535E4,-5.140935E4,-7.172424E3,3.8138707E4,-2.9354785E4,7.637029E3,-3.2071818E4,-6.961552E4,2.3712715E4,-1.6154481E4,1.7131253E5,3.9249047E4,-6.390162E4,2.3731566E4,-3.8261496E4,-1.0544025E4,5.0430902E4,5.46671E3,-1.1276089E4,6.592026E4,-1.2953038E4,1.8653229E4,1.025533E3,5.8199332E4,5.591533E4,7.590792E3,3.2105914E4,8.9715695E4,4.775626E4,3.8516094E3,2.996451E4,1.6426884E5,-2.243175E3,5.7102836E4,9.426266E4,1.9866292E5,1.7183436E4,6.931287E4,6.669715E4,1.13593305E5,1.1928696E5,4.7249543E4,9.68954E4,2.5193638E5],"categories":[],"categories_nodes":[],"categories_segments":[],"categories_sizes":[],"default_left":[0,0,0,0,0,0,0,0,0,0,0,0,0,0,0,0,0,0,0,0,0,0,0,0,0,0,0,0,0,0,0,0,0,0,0,0,0,0,0,0,0,0,0,0,0,0,0,0,0,0,0,0,0,0,0,0,0,0,0,0,0,0,0,0,0,0,0,0,0,0,0,0,0,0,0,0,0,0,0,0,0,0,0,0,0,0,0,0,0,0,0,0,0,0,0,0,0,0,0,0,0,0,0,0,0,0,0,0,0,0,0,0,0,0,0,0,0,0,0,0,0,0,0,0,0],"id":4,"left_children":[1,3,5,7,9,11,13,15,17,19,21,23,25,27,29,31,33,35,37,39,41,43,45,47,49,51,53,55,57,59,61,63,-1,65,67,69,71,73,75,77,79,81,83,85,87,89,91,93,95,97,99,101,103,105,107,109,111,113,115,117,119,121,123,-1,-1,-1,-1,-1,-1,-1,-1,-1,-1,-1,-1,-1,-1,-1,-1,-1,-1,-1,-1,-1,-1,-1,-1,-1,-1,-1,-1,-1,-1,-1,-1,-1,-1,-1,-1,-1,-1,-1,-1,-1,-1,-1,-1,-1,-1,-1,-1,-1,-1,-1,-1,-1,-1,-1,-1,-1,-1,-1,-1,-1,-1],"loss_changes":[1.2144217E14,1.7970022E13,1.5863151E13,2.888508E12,2.9302438E12,7.806342E12,4.6883007E12,7.880426E11,7.1688834E11,1.3665546E12,2.1583816E12,1.9467998E12,6.145161E12,1.7181526E12,3.6350355E12,2.6961825E11,5.905538E11,2.2650814E11,4.8354925E11,6.858961E11,7.7178025E11,8.590974E11,1.63924E12,1.4758968E12,1.8847262E12,1.6120671E12,5.0424845E12,1.3443258E12,2.0928534E12,1.3847872E12,2.7943712E12,3.3176735E11,0E0,3.5643615E11,5.3944412E11,1.3632851E11,1.5358925E11,2.9890236E11,3.8012348E11,8.653756E11,2.7379997E11,1.6014639E11,7.090968E11,6.452255E11,2.784685E11,1.5438672E12,7.279574E11,1.2153882E12,5.0067617E11,2.8716952E12,1.8292774E12,1.1882659E12,6.2474945E11,3.2694914E12,4.0205025E12,1.5584602E12,1.2760931E12,3.0851446E11,9.03797E11,1.1338635E12,9.662848E11,1.2803511E12,1.4991208E12,0E0,0E0,0E0,0E0,0E0,0E0,0E0,0E0,0E0,0E0,0E0,0E0,0E0,0E0,0E0,0E0,0E0,0E0,0E0,0E0,0E0,0E0,0E0,0E0,0E0,0E0,0E0,0E0,0E0,0E0,0E0,0E0,0E0,0E0,0E0,0E0,0E0,0E0,0E0,0E0,0E0,0E0,0E0,0E0,0E0,0E0,0E0,0E0,0E0,0E0,0E0,0E0,0E0,0E0,0E0,0E0,0E0,0E0,0E0,0E0,0E0,0E0],"parents":[2147483647,0,0,1,1,2,2,3,3,4,4,5,5,6,6,7,7,8,8,9,9,10,10,11,11,12,12,13,13,14,14,15,15,16,16,17,17,18,18,19,19,20,20,21,21,22,22,23,23,24,24,25,25,26,26,27,27,28,28,29,29,30,30,31,31,33,33,34,34,35,35,36,36,37,37,38,38,39,39,40,40,41,41,42,42,43,43,44,44,45,45,46,46,47,47,48,48,49,49,50,50,51,51,52,52,53,53,54,54,55,55,56,56,57,57,58,58,59,59,60,60,61,61,62,62],"right_children":[2,4,6,8,10,12,14,16,18,20,22,24,26,28,30,32,34,36,38,40,42,44,46,48,50,52,54,56,58,60,62,64,-1,66,68,70,72,74,76,78,80,82,84,86,88,90,92,94,96,98,100,102,104,106,108,110,112,114,116,118,120,122,124,-1,-1,-1,-1,-1,-1,-1,-1,-1,-1,-1,-1,-1,-1,-1,-1,-1,-1,-1,-1,-1,-1,-1,-1,-1,-1,-1,-1,-1,-1,-1,-1,-1,-1,-1,-1,-1,-1,-1,-1,-1,-1,-1,-1,-1,-1,-1,-1,-1,-1,-1,-1,-1,-1,-1,-1,-1,-1,-1,-1,-1,-1],"split_conditions":[2.303E3,1.486E3,3.56E3,1.125E3,1.08E0,3E0,1.05E0,6.1103E2,3E0,4E0,2.06386E3,2.40199E3,1.01E0,9E0,4E0,1.51E0,1.02E0,8E0,5.5108075E0,2.65E0,1.733E3,1.86E0,5E0,1.35E0,5.756998E4,9E0,3.71972E3,5E0,4.19306E3,6E0,9E0,3.3478E2,-8.598813E4,1E0,4E0,1E0,5E0,2.019E3,2.06E0,9.4696E2,2.40199E3,2.52E0,1E1,1.24163E3,2.5E0,2.263258E4,1.04E0,1.05163E3,1.93236E3,2.35E0,1E1,2.711E3,2.17645E3,1.71E0,4E0,6.132511E4,4.75663E3,2.42688E3,5.5108075E0,3.714E3,5.37059E3,2.59E0,5E0,-8.713328E4,-5.8496707E4,-7.694614E4,-5.8493215E4,-5.9213594E4,-4.1017547E4,-6.559898E4,-4.9398953E4,-7.733257E3,-4.204466E4,-4.427125E4,-6.329807E2,-1.2356954E4,-3.492812E4,-6.21203E4,-2.2856904E4,-6.846587E4,-3.8805387E4,-2.4172535E4,-5.140935E4,-7.172424E3,3.8138707E4,-2.9354785E4,7.637029E3,-3.2071818E4,-6.961552E4,2.3712715E4,-1.6154481E4,1.7131253E5,3.9249047E4,-6.390162E4,2.3731566E4,-3.8261496E4,-1.0544025E4,5.0430902E4,5.46671E3,-1.1276089E4,6.592026E4,-1.2953038E4,1.8653229E4,1.025533E3,5.8199332E4,5.591533E4,7.590792E3,3.2105914E4,8.9715695E4,4.775626E4,3.8516094E3,2.996451E4,1.6426884E5,-2.243175E3,5.7102836E4,9.426266E4,1.9866292E5,1.7183436E4,6.931287E4,6.669715E4,1.13593305E5,1.1928696E5,4.7249543E4,9.68954E4,2.5193638E5],"split_indices":[0,0,0,0,9,1,9,14,1,1,14,14,9,4,1,10,9,4,8,10,0,10,1,10,14,4,14,2,14,8,8,14,0,12,1,12,6,3,10,14,14,10,8,14,10,14,10,14,14,10,4,0,14,10,8,14,14,14,8,0,14,10,4,0,0,0,0,0,0,0,0,0,0,0,0,0,0,0,0,0,0,0,0,0,0,0,0,0,0,0,0,0,0,0,0,0,0,0,0,0,0,0,0,0,0,0,0,0,0,0,0,0,0,0,0,0,0,0,0,0,0,0,0,0,0],"split_type":[0,0,0,0,0,0,0,0,0,0,0,0,0,0,0,0,0,0,0,0,0,0,0,0,0,0,0,0,0,0,0,0,0,0,0,0,0,0,0,0,0,0,0,0,0,0,0,0,0,0,0,0,0,0,0,0,0,0,0,0,0,0,0,0,0,0,0,0,0,0,0,0,0,0,0,0,0,0,0,0,0,0,0,0,0,0,0,0,0,0,0,0,0,0,0,0,0,0,0,0,0,0,0,0,0,0,0,0,0,0,0,0,0,0,0,0,0,0,0,0,0,0,0,0,0],"sum_hessian":[8E3,4.154E3,3.846E3,2.311E3,1.843E3,2.843E3,1.003E3,1.407E3,9.04E2,1.099E3,7.44E2,1.176E3,1.667E3,4.75E2,5.28E2,3.38E2,1.069E3,3.68E2,5.36E2,6.64E2,4.35E2,2.78E2,4.66E2,3.82E2,7.94E2,6.12E2,1.055E3,3.94E2,8.1E1,3.39E2,1.89E2,2.06E2,1.32E2,4.43E2,6.26E2,2.61E2,1.07E2,2.65E2,2.71E2,5.39E2,1.25E2,1.24E2,3.11E2,1.76E2,1.02E2,3.48E2,1.18E2,1.46E2,2.36E2,5.11E2,2.83E2,4.96E2,1.16E2,5.04E2,5.51E2,3.68E2,2.6E1,4.5E1,3.6E1,1.68E2,1.71E2,1.58E2,3.1E1,5.7E1,1.49E2,1.78E2,2.65E2,3.52E2,2.74E2,8.6E1,1.75E2,1.4E1,9.3E1,2.5E2,1.5E1,1.37E2,1.34E2,5.6E1,4.83E2,5.3E1,7.2E1,9.9E1,2.5E1,2.77E2,3.4E1,6.9E1,1.07E2,7.8E1,2.4E1,1.69E2,1.79E2,3E0,1.15E2,1.5E1,1.31E2,1.13E2,1.23E2,2.51E2,2.6E2,2.53E2,3E1,1.55E2,3.41E2,2.1E1,9.5E1,2.57E2,2.47E2,1.52E2,3.99E2,2.68E2,1E2,1.2E1,1.4E1,1E1,3.5E1,2.1E1,1.5E1,5.8E1,1.1E2,8.6E1,8.5E1,1.29E2,2.9E1,1E1,2.1E1],"tree_param":{"num_deleted":"0","num_feature":"15","num_nodes":"125","size_leaf_vector":"1"}},{"base_weights":[2.5373878E2,-7.158836E4,1.0851196E5,-1.1497331E5,-1.2016413E4,4.1866734E4,1.5093838E5,-1.4316778E5,-8.3389555E4,-1.0949912E5,-1.4683015E3,1.1701047E5,-2.2572625E4,1.958269E5,8.49186E4,-1.6532717E5,-1.25813305E5,-1.0380515E5,-5.1777516E4,-4.942638E4,-1.5153823E5,1.4356797E4,-8.595501E4,-6.3560044E3,2.2892211E5,-3.250239E3,-1.3807053E5,1.7453797E5,6.649505E5,5.3889453E4,1.9880167E5,-1.4156208E5,-2.1154184E5,-1.5601812E5,-9.3727016E4,-1.306838E5,-8.084581E4,-8.569828E4,-1.64565E4,-1.4527105E5,-1.2477959E4,-6.5429984E4,-1.3625194E5,-1.3145177E4,5.1860473E4,-1.9360944E5,-3.4697055E4,8.796674E4,-5.5306184E4,4.2516438E5,1.7307078E5,-7.588544E4,4.5042664E4,-8.659685E4,-1.7177012E5,1.4029945E5,2.9953762E5,4.6470925E5,8.9867994E5,1.2685102E5,-1.2970784E4,3.925028E4,2.7338016E5,-5.421463E4,-3.2913125E4,-5.8537047E4,-7.35426E4,-5.3951285E4,-3.733335E4,-9.1739087E2,-3.5148453E4,-6.728426E4,-3.7300953E4,-3.81392E4,-1.8808398E4,-1.7887678E4,-5.090493E4,-1.755748E4,1.3555909E4,-5.0468957E4,-2.062829E4,8.234205E3,-1.5600226E4,-1.9135572E4,-4.4012305E4,4.7122764E3,-1.9253736E4,7.3655853E2,2.7397049E4,-4.9808516E4,-7.462586E4,-4.3060062E4,-3.5765486E3,-4.108921E3,6.591571E4,-3.8749633E4,-8.975314E3,1.0351984E5,1.961714E5,3.405138E4,8.3851805E4,-4.3738945E4,-1.6082119E4,3.0862127E4,-2.6585903E3,-3.0183533E4,-1.6014777E4,-4.4672035E4,-6.5042098E4,6.7073625E4,2.8375918E4,2.3088748E5,3.32552E4,4.1057895E4,1.7492616E5,1.2879188E4,2.812157E5,5.7511562E4,1.7451246E3,-1.9063215E4,2.526829E4,3.6952824E4,-1.9916314E4,1.3228738E5,6.0168836E4],"categories":[],"categories_nodes":[],"categories_segments":[],"categories_sizes":[],"default_left":[0,0,0,0,0,0,0,0,0,0,0,0,0,0,0,0,0,0,0,0,0,0,0,0,0,0,0,0,0,0,0,0,0,0,0,0,0,0,0,0,0,0,0,0,0,0,0,0,0,0,0,0,0,0,0,0,0,0,0,0,0,0,0,0,0,0,0,0,0,0,0,0,0,0,0,0,0,0,0,0,0,0,0,0,0,0,0,0,0,0,0,0,0,0,0,0,0,0,0,0,0,0,0,0,0,0,0,0,0,0,0,0,0,0,0,0,0,0,0,0,0,0,0,0,0],"id":5,"left_children":[1,3,5,7,9,11,13,15,17,19,21,23,25,27,29,31,33,35,37,39,41,43,45,47,49,51,53,55,57,59,61,63,65,67,69,71,73,75,77,79,81,-1,83,85,87,89,91,93,95,97,99,101,103,105,107,109,111,113,115,117,119,121,123,-1,-1,-1,-1,-1,-1,-1,-1,-1,-1,-1,-1,-1,-1,-1,-1,-1,-1,-1,-1,-1,-1,-1,-1,-1,-1,-1,-1,-1,-1,-1,-1,-1,-1,-1,-1,-1,-1,-1,-1,-1,-1,-1,-1,-1,-1,-1,-1,-1,-1,-1,-1,-1,-1,-1,-1,-1,-1,-1,-1,-1,-1],"loss_changes":[6.2235523E13,1.2430187E13,9.019117E12,2.4662843E12,2.0851474E12,6.021513E12,5.7622565E12,5.4412496E11,8.432973E11,4.9254026E11,2.4493003E12,7.9261813E12,1.4947869E12,1.1469031E13,2.784439E12,6.751613E11,7.878413E11,4.8189355E11,6.1921375E11,2.9211597E11,8.831133E10,1.5921706E12,1.5880263E12,1.2699548E12,3.225492E12,2.0203827E12,1.5165096E11,4.712831E12,1.9224865E12,3.0407813E12,2.000218E12,5.1268498E11,7.132519E10,2.9724928E11,8.580542E11,1.8955003E11,3.5580307E11,5.679659E11,6.639152E11,2.883371E10,9.768282E10,0E0,6.413851E10,1.3129792E12,1.272918E12,1.0014504E11,4.8660762E11,1.2620784E12,3.3554203E11,9.835905E11,1.4645005E12,3.5041038E11,1.0795194E12,1.3248889E10,2.6408387E10,3.3061287E12,2.1025132E13,1.04569346E12,6.8845096E11,2.338053E12,1.6078509E12,4.9579373E11,1.3148556E12,0E0,0E0,0E0,0E0,0E0,0E0,0E0,0E0,0E0,0E0,0E0,0E0,0E0,0E0,0E0,0E0,0E0,0E0,0E0,0E0,0E0,0E0,0E0,0E0,0E0,0E0,0E0,0E0,0E0,0E0,0E0,0E0,0E0,0E0,0E0,0E0,0E0,0E0,0E0,0E0,0E0,0E0,0E0,0E0,0E0,0E0,0E0,0E0,0E0,0E0,0E0,0E0,0E0,0E0,0E0,0E0,0E0,0E0,0E0,0E0,0E0,0E0],"parents":[2147483647,0,0,1,1,2,2,3,3,4,4,5,5,6,6,7,7,8,8,9,9,10,10,11,11,12,12,13,13,14,14,15,15,16,16,17,17,18,18,19,19,20,20,21,21,22,22,23,23,24,24,25,25,26,26,27,27,28,28,29,29,30,30,31,31,32,32,33,33,34,34,35,35,36,36,37,37,38,38,39,39,40,40,42,42,43,43,44,44,45,45,46,46,47,47,48,48,49,49,50,50,51,51,52,52,53,53,54,54,55,55,56,56,57,57,58,58,59,59,60,60,61,61,62,62],"right_children":[2,4,6,8,10,12,14,16,18,20,22,24,26,28,30,32,34,36,38,40,42,44,46,48,50,52,54,56,58,60,62,64,66,68,70,72,74,76,78,80,82,-1,84,86,88,90,92,94,96,98,100,102,104,106,108,110,112,114,116,118,120,122,124,-1,-1,-1,-1,-1,-1,-1,-1,-1,-1,-1,-1,-1,-1,-1,-1,-1,-1,-1,-1,-1,-1,-1,-1,-1,-1,-1,-1,-1,-1,-1,-1,-1,-1,-1,-1,-1,-1,-1,-1,-1,-1,-1,-1,-1,-1,-1,-1,-1,-1,-1,-1,-1,-1,-1,-1,-1,-1,-1,-1,-1,-1],"split_conditions":[2.591E3,1.693E3,3.23798E3,1.151E3,1.21735E3,1.56E0,1.8E1,8.6649E2,1.08E0,1.24E0,2.72E0,1.88429E3,2.55E0,1.7E1,5E0,1.94E0,1E0,2E0,1.78927E3,8.3565E2,9.1129E2,4E0,2.82366E3,1.13E0,1.19E0,2.42688E3,2.7E0,1.4E1,2E0,4.146689E4,5E0,4.9773E2,2.56E0,4E0,2.03E0,6.333E2,4E0,2.22E0,1E0,8E0,1.09E0,-6.5429984E4,1.3E0,2.730905E4,2.46827E3,1.07E0,3E0,1.40651E3,1.37906E3,2.44623E3,2.49264E3,1.84329E3,2.01E0,3.205E3,2.9E0,5E0,1.5E1,3.036E3,1.09E0,2.69E0,8E0,5.756998E4,1.74E0,-5.421463E4,-3.2913125E4,-5.8537047E4,-7.35426E4,-5.3951285E4,-3.733335E4,-9.1739087E2,-3.5148453E4,-6.728426E4,-3.7300953E4,-3.81392E4,-1.8808398E4,-1.7887678E4,-5.090493E4,-1.755748E4,1.3555909E4,-5.0468957E4,-2.062829E4,8.234205E3,-1.5600226E4,-1.9135572E4,-4.4012305E4,4.7122764E3,-1.9253736E4,7.3655853E2,2.7397049E4,-4.9808516E4,-7.462586E4,-4.3060062E4,-3.5765486E3,-4.108921E3,6.591571E4,-3.8749633E4,-8.975314E3,1.0351984E5,1.961714E5,3.405138E4,8.3851805E4,-4.3738945E4,-1.6082119E4,3.0862127E4,-2.6585903E3,-3.0183533E4,-1.6014777E4,-4.4672035E4,-6.5042098E4,6.7073625E4,2.8375918E4,2.3088748E5,3.32552E4,4.1057895E4,1.7492616E5,1.2879188E4,2.812157E5,5.7511562E4,1.7451246E3,-1.9063215E4,2.526829E4,3.6952824E4,-1.9916314E4,1.3228738E5,6.0168836E4],"split_indices":[0,0,14,0,14,10,6,14,9,10,10,14,10,6,1,10,12,2,14,14,14,1,14,10,10,14,10,6,2,14,4,14,10,1,10,14,4,10,12,8,10,0,10,14,14,9,4,14,14,14,14,14,10,0,10,6,6,0,10,10,4,14,10,0,0,0,0,0,0,0,0,0,0,0,0,0,0,0,0,0,0,0,0,0,0,0,0,0,0,0,0,0,0,0,0,0,0,0,0,0,0,0,0,0,0,0,0,0,0,0,0,0,0,0,0,0,0,0,0,0,0,0,0,0,0],"split_type":[0,0,0,0,0,0,0,0,0,0,0,0,0,0,0,0,0,0,0,0,0,0,0,0,0,0,0,0,0,0,0,0,0,0,0,0,0,0,0,0,0,0,0,0,0,0,0,0,0,0,0,0,0,0,0,0,0,0,0,0,0,0,0,0,0,0,0,0,0,0,0,0,0,0,0,0,0,0,0,0,0,0,0,0,0,0,0,0,0,0,0,0,0,0,0,0,0,0,0,0,0,0,0,0,0,0,0,0,0,0,0,0,0,0,0,0,0,0,0,0,0,0,0,0,0],"sum_hessian":[8E3,4.809E3,3.191E3,2.782E3,2.027E3,1.242E3,1.949E3,1.468E3,1.314E3,1.97E2,1.83E3,5.73E2,6.69E2,1.159E3,7.9E2,6.41E2,8.27E2,7.97E2,5.17E2,8.2E1,1.15E2,1.542E3,2.88E2,2.73E2,3E2,5.74E2,9.5E1,1.11E3,4.9E1,6.22E2,1.68E2,4.26E2,2.15E2,4.24E2,4.03E2,3.65E2,4.32E2,2.63E2,2.54E2,2.2E1,6E1,1.9E1,9.6E1,8.9E2,6.52E2,9.2E1,1.96E2,9.3E1,1.8E2,6.5E1,2.35E2,2.29E2,3.45E2,3.9E1,5.6E1,8.73E2,2.37E2,2.8E1,2.1E1,2.97E2,3.25E2,5.4E1,1.14E2,1.89E2,2.37E2,1.49E2,6.6E1,2.39E2,1.85E2,8.3E1,3.2E2,2.1E1,3.44E2,1.2E2,3.12E2,2.02E2,6.1E1,1.51E2,1.03E2,1.6E1,6E0,3E1,3E1,1.3E1,8.3E1,5.69E2,3.21E2,2.9E2,3.62E2,6.4E1,2.8E1,3.3E1,1.63E2,5.3E1,4E1,4.5E1,1.35E2,5E1,1.5E1,1.52E2,8.3E1,5.4E1,1.75E2,1.66E2,1.79E2,2.6E1,1.3E1,4E1,1.6E1,3.08E2,5.65E2,6.7E1,1.7E2,8E0,2E1,1E0,2E1,1.93E2,1.04E2,2.14E2,1.11E2,3E1,2.4E1,3.3E1,8.1E1],"tree_param":{"num_deleted":"0","num_feature":"15","num_nodes":"125","size_leaf_vector":"1"}},{"base_weights":[2.3303963E2,-4.8765633E4,7.907498E4,-7.8583734E4,-3.809278E3,3.510798E4,1.1731022E5,-1.11983484E5,-6.2403754E4,-3.797595E4,2.1173566E4,5.8435684E4,-8.98772E4,5.676862E4,1.6188669E5,-8.165264E4,-1.3463864E5,-9.218969E4,-3.8843977E4,-7.056899E4,-5.9894634E3,-2.6574275E4,4.1550562E4,-2.7625223E4,8.3701266E4,-5.286387E4,-1.3561523E5,8.301872E3,1.3622998E5,1.7613706E5,-1.336012E5,-1.1298244E5,-3.8288254E4,-1.2177823E5,-1.6738066E5,-1.0851137E5,-5.532254E4,-5.5421965E4,7.560753E4,-1.0500882E5,-4.520037E4,-2.0558102E4,5.1841363E4,7.393571E4,-5.7162918E4,8.683635E4,-7.993225E3,3.0941324E4,-7.769499E4,2.172513E5,4.6397613E4,-2.4127064E4,-8.213852E4,-1.4057517E5,1.8567312E4,-5.3393695E4,7.8122336E4,6.550381E4,2.8700628E5,1.4220466E5,2.6344325E5,6.389267E4,-1.4661405E5,-5.060548E4,-3.1278963E4,1.4165628E4,-1.6229915E4,-4.4392156E4,-3.397429E4,-4.2666312E4,-5.855432E4,-3.5426758E4,-2.0865443E4,-3.5926062E4,-4.1127373E3,-5.1971743E3,-3.7395363E4,9.033065E4,1.6312314E4,-6.2071652E4,-1.867586E4,-6.568822E3,-3.3413168E4,-1.0613455E4,1.1576604E4,-1.0233667E4,2.9088658E4,-3.9526018E3,4.259446E4,-8.297337E3,-2.4124775E4,6.452173E3,4.7080133E4,-4.153159E4,6.209095E3,-2.1841969E4,2.3324355E4,-1.6613465E4,-4.1594273E4,4.846305E4,1.1403448E5,-1.9893642E2,3.0162074E4,-1.445292E4,8.566838E3,-1.9716605E4,-3.651839E4,-3.1989357E4,-4.9056875E4,1.82103E4,-1.6175063E4,-2.447547E4,5.794644E4,1.6364462E4,1.26085414E5,5.0851434E4,-4.4699644E3,1.2012849E5,4.3760203E4,1.8858656E4,5.6151977E4,9.943704E4,4.077572E4,-5.5297387E4,-1.12101E3],"categories":[],"categories_nodes":[],"categories_segments":[],"categories_sizes":[],"default_left":[0,0,0,0,0,0,0,0,0,0,0,0,0,0,0,0,0,0,0,0,0,0,0,0,0,0,0,0,0,0,0,0,0,0,0,0,0,0,0,0,0,0,0,0,0,0,0,0,0,0,0,0,0,0,0,0,0,0,0,0,0,0,0,0,0,0,0,0,0,0,0,0,0,0,0,0,0,0,0,0,0,0,0,0,0,0,0,0,0,0,0,0,0,0,0,0,0,0,0,0,0,0,0,0,0,0,0,0,0,0,0,0,0,0,0,0,0,0,0,0,0,0,0,0,0],"id":6,"left_children":[1,3,5,7,9,11,13,15,17,19,21,23,25,27,29,31,33,35,37,39,41,43,45,47,49,51,53,55,57,59,61,63,65,67,69,71,73,75,77,79,81,83,85,87,89,91,93,95,97,99,101,103,105,107,109,111,113,115,117,119,121,-1,123,-1,-1,-1,-1,-1,-1,-1,-1,-1,-1,-1,-1,-1,-1,-1,-1,-1,-1,-1,-1,-1,-1,-1,-1,-1,-1,-1,-1,-1,-1,-1,-1,-1,-1,-1,-1,-1,-1,-1,-1,-1,-1,-1,-1,-1,-1,-1,-1,-1,-1,-1,-1,-1,-1,-1,-1,-1,-1,-1,-1,-1,-1],"loss_changes":[3.0912924E13,6.6151325E12,5.1517797E12,1.5964003E12,1.6815043E12,4.1687533E12,4.416728E12,6.534799E11,1.4006207E12,8.66968E11,1.1083299E12,2.6202645E12,3.7373713E11,2.6831796E12,3.998537E12,5.6085053E11,2.1205143E11,5.2532766E11,2.1273535E12,3.552143E11,3.5576516E11,1.05261865E12,1.7911107E12,8.058853E11,4.628072E12,1.04017E11,7.908386E10,1.8736752E12,2.7964515E12,2.631758E12,2.2966305E11,9.946215E10,2.4050493E11,7.262752E10,7.925688E10,2.1978205E11,7.303242E11,2.5773151E12,6.6351825E11,7.4518364E11,3.6614832E11,2.96766E11,3.3296282E11,4.760741E11,1.7752949E11,1.9062357E12,1.4325023E12,6.223825E11,1.9364119E11,1.7803678E12,1.8575525E12,8.373045E10,3.229483E10,5.812034E10,1.5488913E10,1.6213237E12,1.6225749E12,1.5160587E12,1.286284E12,2.3109483E12,2.1319658E12,0E0,2.3099454E11,0E0,0E0,0E0,0E0,0E0,0E0,0E0,0E0,0E0,0E0,0E0,0E0,0E0,0E0,0E0,0E0,0E0,0E0,0E0,0E0,0E0,0E0,0E0,0E0,0E0,0E0,0E0,0E0,0E0,0E0,0E0,0E0,0E0,0E0,0E0,0E0,0E0,0E0,0E0,0E0,0E0,0E0,0E0,0E0,0E0,0E0,0E0,0E0,0E0,0E0,0E0,0E0,0E0,0E0,0E0,0E0,0E0,0E0,0E0,0E0,0E0,0E0],"parents":[2147483647,0,0,1,1,2,2,3,3,4,4,5,5,6,6,7,7,8,8,9,9,10,10,11,11,12,12,13,13,14,14,15,15,16,16,17,17,18,18,19,19,20,20,21,21,22,22,23,23,24,24,25,25,26,26,27,27,28,28,29,29,30,30,31,31,32,32,33,33,34,34,35,35,36,36,37,37,38,38,39,39,40,40,41,41,42,42,43,43,44,44,45,45,46,46,47,47,48,48,49,49,50,50,51,51,52,52,53,53,54,54,55,55,56,56,57,57,58,58,59,59,60,60,62,62],"right_children":[2,4,6,8,10,12,14,16,18,20,22,24,26,28,30,32,34,36,38,40,42,44,46,48,50,52,54,56,58,60,62,64,66,68,70,72,74,76,78,80,82,84,86,88,90,92,94,96,98,100,102,104,106,108,110,112,114,116,118,120,122,-1,124,-1,-1,-1,-1,-1,-1,-1,-1,-1,-1,-1,-1,-1,-1,-1,-1,-1,-1,-1,-1,-1,-1,-1,-1,-1,-1,-1,-1,-1,-1,-1,-1,-1,-1,-1,-1,-1,-1,-1,-1,-1,-1,-1,-1,-1,-1,-1,-1,-1,-1,-1,-1,-1,-1,-1,-1,-1,-1,-1,-1,-1,-1],"split_conditions":[2.653E3,1.768E3,3.71972E3,9.6744E2,1.02E0,2.41E0,2E0,1.47E0,1E0,6E0,2.06386E3,1.80451E3,2.7E0,1E0,2.95E0,6.333E2,2.3E0,8E0,2.15065E3,5E0,5E0,1.21E0,2.27E0,1.22E0,1.37E0,3.108E3,2.8E1,6E0,4.85544E3,8E0,1.951E3,2.8623E2,1.12E0,5.7176E2,6.78E2,5E0,5E0,2.43E0,2.08E0,1E0,2.003E3,9E0,2.053E3,1.21735E3,1.6E0,1E0,2.73314E3,1.24163E3,3.261E3,2.46827E3,2.79359E3,3.27291E3,4E0,3.09789E3,3.365E3,1.14E0,1.3381248E5,2.5E0,2.7E0,2E0,2E0,6.389267E4,3.498E3,-5.060548E4,-3.1278963E4,1.4165628E4,-1.6229915E4,-4.4392156E4,-3.397429E4,-4.2666312E4,-5.855432E4,-3.5426758E4,-2.0865443E4,-3.5926062E4,-4.1127373E3,-5.1971743E3,-3.7395363E4,9.033065E4,1.6312314E4,-6.2071652E4,-1.867586E4,-6.568822E3,-3.3413168E4,-1.0613455E4,1.1576604E4,-1.0233667E4,2.9088658E4,-3.9526018E3,4.259446E4,-8.297337E3,-2.4124775E4,6.452173E3,4.7080133E4,-4.153159E4,6.209095E3,-2.1841969E4,2.3324355E4,-1.6613465E4,-4.1594273E4,4.846305E4,1.1403448E5,-1.9893642E2,3.0162074E4,-1.445292E4,8.566838E3,-1.9716605E4,-3.651839E4,-3.1989357E4,-4.9056875E4,1.82103E4,-1.6175063E4,-2.447547E4,5.794644E4,1.6364462E4,1.26085414E5,5.0851434E4,-4.4699644E3,1.2012849E5,4.3760203E4,1.8858656E4,5.6151977E4,9.943704E4,4.077572E4,-5.5297387E4,-1.12101E3],"split_indices":[0,0,14,14,9,10,2,10,12,4,14,14,10,12,10,14,10,4,14,8,1,10,10,10,10,0,6,8,14,8,3,14,10,14,0,1,8,10,10,12,3,8,0,14,10,12,14,14,0,14,14,14,1,14,0,9,14,10,10,13,5,0,0,0,0,0,0,0,0,0,0,0,0,0,0,0,0,0,0,0,0,0,0,0,0,0,0,0,0,0,0,0,0,0,0,0,0,0,0,0,0,0,0,0,0,0,0,0,0,0,0,0,0,0,0,0,0,0,0,0,0,0,0,0,0],"split_type":[0,0,0,0,0,0,0,0,0,0,0,0,0,0,0,0,0,0,0,0,0,0,0,0,0,0,0,0,0,0,0,0,0,0,0,0,0,0,0,0,0,0,0,0,0,0,0,0,0,0,0,0,0,0,0,0,0,0,0,0,0,0,0,0,0,0,0,0,0,0,0,0,0,0,0,0,0,0,0,0,0,0,0,0,0,0,0,0,0,0,0,0,0,0,0,0,0,0,0,0,0,0,0,0,0,0,0,0,0,0,0,0,0,0,0,0,0,0,0,0,0,0,0,0,0],"sum_hessian":[8E3,4.934E3,3.066E3,2.966E3,1.968E3,1.427E3,1.639E3,9.66E2,2E3,8.31E2,1.137E3,1.203E3,2.24E2,6.96E2,9.43E2,4.15E2,5.51E2,8.82E2,1.118E3,4.11E2,4.2E2,3.4E2,7.97E2,2.73E2,9.3E2,1.25E2,9.9E1,4.33E2,2.63E2,9E2,4.3E1,2.4E2,1.75E2,3.99E2,1.52E2,6.1E2,2.72E2,9.77E2,1.41E2,1.73E2,2.38E2,3.36E2,8.4E1,7.9E1,2.61E2,4.16E2,3.81E2,1.26E2,1.47E2,2.02E2,7.28E2,6.4E1,6.1E1,9.6E1,3E0,2.3E2,2.03E2,1.8E2,8.3E1,6.5E2,2.5E2,1E0,4.2E1,3E1,2.1E2,2.7E1,1.48E2,9.4E1,3.05E2,8.3E1,6.9E1,4.88E2,1.22E2,1.06E2,1.66E2,6.31E2,3.46E2,1.1E1,1.3E2,5E1,1.23E2,1.77E2,6.1E1,2.69E2,6.7E1,2.9E1,5.5E1,3.5E1,4.4E1,1.16E2,1.45E2,2.16E2,2E2,6.8E1,3.13E2,3.9E1,8.7E1,1.09E2,3.8E1,1.52E2,5E1,3.9E2,3.38E2,4.4E1,2E1,4.5E1,1.6E1,4.1E1,5.5E1,2E0,1E0,2.07E2,2.3E1,1.91E2,1.2E1,7.8E1,1.02E2,4.5E1,3.8E1,2.36E2,4.14E2,1.62E2,8.8E1,3.3E1,9E0],"tree_param":{"num_deleted":"0","num_feature":"15","num_nodes":"125","size_leaf_vector":"1"}},{"base_weights":[1.9202245E2,-3.421138E4,5.5549246E4,-5.5108312E4,-2.7053293E3,2.7675451E4,9.1787414E4,-7.7514195E4,-4.2074492E4,-5.1017883E4,9.837894E3,5.207127E4,-5.6871707E4,5.1602766E4,1.884686E5,-4.3753957E4,-9.051592E4,-6.464188E4,-2.2025215E4,-6.136762E4,2.9342203E4,-1.9184955E4,3.411425E4,3.246499E3,8.865393E4,-2.1125887E4,-9.458619E4,4.7590747E3,1.2711044E5,1.346404E5,4.6657975E5,-6.444054E4,2.2872443E4,-8.212923E4,-1.1870123E5,-7.788511E4,-3.0226588E4,9.0231805E4,-3.5496535E4,-4.0190992E4,-1.1040761E5,-1.9780156E4,2.1307295E5,1.043486E4,-9.521196E4,-7.9655312E3,9.001244E4,9.773812E4,-2.1724533E4,1.7919047E5,2.9206934E4,1.605912E4,-5.527655E4,-6.0011254E4,-1.1730906E5,-2.8270031E4,1.2357437E5,9.9459625E4,3.818163E5,5.676906E5,9.716032E4,4.093155E5,4.42628E5,-2.692937E4,-1.24368E4,2.690029E4,1.2155503E3,-2.771783E4,-1.9184799E4,-3.0316635E4,-4.3533562E4,-3.4055543E4,-2.089479E4,-2.554072E4,-7.267295E2,1.9575332E4,8.476744E4,-1.9534576E4,4.7836216E3,-2.1348088E4,-5.321616E3,-2.7926797E4,-8.1245375E4,-4.015769E4,1.3468556E4,2.7549377E4,1.1159331E5,-6.2533726E3,2.5312264E4,-1.6550477E4,-3.8441047E4,-8.340009E3,6.085428E4,8.2187E4,1.8012117E4,3.3058164E3,6.2637598E4,1.3981061E3,-1.7790686E4,3.8425E4,8.575029E4,-2.5408896E3,1.9056344E4,-9.219633E3,1.9339627E4,-9.931153E3,-3.1447064E4,-2.8492316E4,-4.602582E3,-2.6145158E4,-4.8786734E4,-4.1663766E4,-2.3002327E2,-1.3768472E4,5.8126504E4,-2.1659749E3,4.4150082E4,1.6197844E5,4.809392E4,2.3345997E5,1.23140414E5,5.0221855E4,1.3078882E3,1.646626E5,8.698811E4],"categories":[],"categories_nodes":[],"categories_segments":[],"categories_sizes":[],"default_left":[0,0,0,0,0,0,0,0,0,0,0,0,0,0,0,0,0,0,0,0,0,0,0,0,0,0,0,0,0,0,0,0,0,0,0,0,0,0,0,0,0,0,0,0,0,0,0,0,0,0,0,0,0,0,0,0,0,0,0,0,0,0,0,0,0,0,0,0,0,0,0,0,0,0,0,0,0,0,0,0,0,0,0,0,0,0,0,0,0,0,0,0,0,0,0,0,0,0,0,0,0,0,0,0,0,0,0,0,0,0,0,0,0,0,0,0,0,0,0,0,0,0,0,0,0],"id":7,"left_children":[1,3,5,7,9,11,13,15,17,19,21,23,25,27,29,31,33,35,37,39,41,43,45,47,49,51,53,55,57,59,61,63,65,67,69,71,73,75,77,79,81,83,85,87,89,91,93,95,97,99,101,103,105,107,109,111,113,115,117,119,121,123,-1,-1,-1,-1,-1,-1,-1,-1,-1,-1,-1,-1,-1,-1,-1,-1,-1,-1,-1,-1,-1,-1,-1,-1,-1,-1,-1,-1,-1,-1,-1,-1,-1,-1,-1,-1,-1,-1,-1,-1,-1,-1,-1,-1,-1,-1,-1,-1,-1,-1,-1,-1,-1,-1,-1,-1,-1,-1,-1,-1,-1,-1,-1],"loss_changes":[1.5239619E13,3.2489556E12,3.0954226E12,8.6320454E11,1.1937063E12,3.5815678E12,5.1691116E12,4.7448588E11,8.482959E11,3.3947327E11,1.1026003E12,2.4056423E12,5.224264E11,3.3348405E12,5.7905366E12,4.2184697E11,1.7604752E11,4.000902E11,1.5094042E12,3.694233E11,4.2840313E11,1.6066025E12,2.0047774E12,1.3659451E12,4.1390032E12,2.5613612E11,1.4144635E11,2.2913968E12,2.5044845E12,5.2847617E12,3.0356506E12,1.31899E11,9.1406885E10,1.0772467E11,6.829061E10,1.790336E11,3.768892E11,4.956386E11,1.3570815E12,1.7465645E11,2.7481722E11,2.863769E11,1.5849964E11,1.1905282E12,2.5661761E11,2.0419675E12,2.0013777E12,1.1629838E12,4.5437636E11,1.6257196E12,6.030021E11,2.2168522E11,1.1188198E11,1.18799925E11,1.4025163E11,1.3901405E12,1.519362E12,1.6652944E12,1.1392222E12,5.4109143E11,1.9810044E12,8.569351E11,0E0,0E0,0E0,0E0,0E0,0E0,0E0,0E0,0E0,0E0,0E0,0E0,0E0,0E0,0E0,0E0,0E0,0E0,0E0,0E0,0E0,0E0,0E0,0E0,0E0,0E0,0E0,0E0,0E0,0E0,0E0,0E0,0E0,0E0,0E0,0E0,0E0,0E0,0E0,0E0,0E0,0E0,0E0,0E0,0E0,0E0,0E0,0E0,0E0,0E0,0E0,0E0,0E0,0E0,0E0,0E0,0E0,0E0,0E0,0E0,0E0,0E0,0E0],"parents":[2147483647,0,0,1,1,2,2,3,3,4,4,5,5,6,6,7,7,8,8,9,9,10,10,11,11,12,12,13,13,14,14,15,15,16,16,17,17,18,18,19,19,20,20,21,21,22,22,23,23,24,24,25,25,26,26,27,27,28,28,29,29,30,30,31,31,32,32,33,33,34,34,35,35,36,36,37,37,38,38,39,39,40,40,41,41,42,42,43,43,44,44,45,45,46,46,47,47,48,48,49,49,50,50,51,51,52,52,53,53,54,54,55,55,56,56,57,57,58,58,59,59,60,60,61,61],"right_children":[2,4,6,8,10,12,14,16,18,20,22,24,26,28,30,32,34,36,38,40,42,44,46,48,50,52,54,56,58,60,62,64,66,68,70,72,74,76,78,80,82,84,86,88,90,92,94,96,98,100,102,104,106,108,110,112,114,116,118,120,122,124,-1,-1,-1,-1,-1,-1,-1,-1,-1,-1,-1,-1,-1,-1,-1,-1,-1,-1,-1,-1,-1,-1,-1,-1,-1,-1,-1,-1,-1,-1,-1,-1,-1,-1,-1,-1,-1,-1,-1,-1,-1,-1,-1,-1,-1,-1,-1,-1,-1,-1,-1,-1,-1,-1,-1,-1,-1,-1,-1,-1,-1,-1,-1],"split_conditions":[2.653E3,1.768E3,4.40185E3,1.05163E3,2E0,2.39E0,1E0,1.34E0,1E0,1E1,2.49264E3,2.30918E3,2.67E0,7E0,6.0282E3,7.5186E2,2.31E0,1.1E0,1.57E0,2.827077E4,5.57669E4,2.05E0,1E0,1.13E0,1.77E0,3.124E3,3.036E3,5E0,3.874E3,1.92E0,1.170565E4,4.7054E2,1.1E0,8.196E2,7.39E2,9.2E-1,5E0,1.61374E3,1.69873E3,1.64334E3,2.7E1,4E0,2.423E3,1.82417E3,2.37E0,1E1,1.95E0,1.61374E3,1.51E0,3.09789E3,3.20479E3,3.4104E3,4E0,3.4104E3,1.05E0,2.927E3,9.9E-1,4E0,1.991E3,1.8E0,2.69E0,2.74E0,4.42628E5,-2.692937E4,-1.24368E4,2.690029E4,1.2155503E3,-2.771783E4,-1.9184799E4,-3.0316635E4,-4.3533562E4,-3.4055543E4,-2.089479E4,-2.554072E4,-7.267295E2,1.9575332E4,8.476744E4,-1.9534576E4,4.7836216E3,-2.1348088E4,-5.321616E3,-2.7926797E4,-8.1245375E4,-4.015769E4,1.3468556E4,2.7549377E4,1.1159331E5,-6.2533726E3,2.5312264E4,-1.6550477E4,-3.8441047E4,-8.340009E3,6.085428E4,8.2187E4,1.8012117E4,3.3058164E3,6.2637598E4,1.3981061E3,-1.7790686E4,3.8425E4,8.575029E4,-2.5408896E3,1.9056344E4,-9.219633E3,1.9339627E4,-9.931153E3,-3.1447064E4,-2.8492316E4,-4.602582E3,-2.6145158E4,-4.8786734E4,-4.1663766E4,-2.3002327E2,-1.3768472E4,5.8126504E4,-2.1659749E3,4.4150082E4,1.6197844E5,4.809392E4,2.3345997E5,1.23140414E5,5.0221855E4,1.3078882E3,1.646626E5,8.698811E4],"split_indices":[0,0,14,14,1,10,12,10,12,4,14,14,10,4,14,14,10,9,10,14,14,10,12,10,10,0,0,1,0,10,14,14,10,14,0,9,4,14,14,14,6,8,0,14,10,8,10,14,10,14,14,14,1,14,9,0,9,8,3,10,10,10,0,0,0,0,0,0,0,0,0,0,0,0,0,0,0,0,0,0,0,0,0,0,0,0,0,0,0,0,0,0,0,0,0,0,0,0,0,0,0,0,0,0,0,0,0,0,0,0,0,0,0,0,0,0,0,0,0,0,0,0,0,0,0],"split_type":[0,0,0,0,0,0,0,0,0,0,0,0,0,0,0,0,0,0,0,0,0,0,0,0,0,0,0,0,0,0,0,0,0,0,0,0,0,0,0,0,0,0,0,0,0,0,0,0,0,0,0,0,0,0,0,0,0,0,0,0,0,0,0,0,0,0,0,0,0,0,0,0,0,0,0,0,0,0,0,0,0,0,0,0,0,0,0,0,0,0,0,0,0,0,0,0,0,0,0,0,0,0,0,0,0,0,0,0,0,0,0,0,0,0,0,0,0,0,0,0,0,0,0,0,0],"sum_hessian":[8E3,4.934E3,3.066E3,2.966E3,1.968E3,1.734E3,1.332E3,1.089E3,1.877E3,4.05E2,1.563E3,1.346E3,3.88E2,9.42E2,3.9E2,3.04E2,7.85E2,8.82E2,9.95E2,3.59E2,4.6E1,7.12E2,8.51E2,5.77E2,7.69E2,2E2,1.88E2,5.82E2,3.6E2,3.28E2,6.2E1,2.32E2,7.2E1,6.08E2,1.77E2,6.36E2,2.46E2,1.06E2,8.89E2,2.52E2,1.07E2,3.7E1,9E0,5.13E2,1.99E2,4.86E2,3.65E2,1.2E2,4.57E2,3.04E2,4.65E2,9.6E1,1.04E2,7.6E1,1.12E2,4.56E2,1.26E2,3.26E2,3.4E1,2.5E1,3.03E2,6E1,2E0,1.09E2,1.23E2,1.5E1,5.7E1,3.86E2,2.22E2,1.09E2,6.8E1,1.17E2,5.19E2,8.2E1,1.64E2,9.5E1,1.1E1,5.64E2,3.25E2,1.05E2,1.47E2,9.8E1,9E0,1.3E1,2.4E1,6E0,3E0,3.61E2,1.52E2,9.1E1,1.08E2,4.45E2,4.1E1,5E1,3.15E2,6.8E1,5.2E1,2.69E2,1.88E2,2.07E2,9.7E1,2.22E2,2.43E2,4.9E1,4.7E1,7.3E1,3.1E1,4.2E1,3.4E1,6.9E1,4.3E1,9E1,3.66E2,3.7E1,8.9E1,1.01E2,2.25E2,1.9E1,1.5E1,9E0,1.6E1,1.72E2,1.31E2,2.6E1,3.4E1],"tree_param":{"num_deleted":"0","num_feature":"15","num_nodes":"125","size_leaf_vector":"1"}},{"base_weights":[3.0660025E2,-2.3954092E4,3.934351E4,-5.185135E4,-1.0367969E4,-2.996124E4,4.883329E4,-1.199144E4,-6.2344547E4,-3.368454E4,8.68127E3,-4.306304E3,-1.22906555E5,2.4901309E4,8.222242E4,-3.165319E4,5.5065312E4,-5.4827543E4,-8.75653E4,-4.2252668E4,4.108803E4,-5.540591E3,1.373336E5,-6.252654E4,8.0320283E3,-1.7144973E5,1.1818627E5,4.705161E4,-3.8461805E4,1.1654862E5,8.237153E2,-6.296524E4,-1.4621836E4,8.5313766E4,1.4300686E4,-4.5001043E4,-7.464392E4,-7.11299E4,-1.25474805E5,-4.9366188E4,3.853734E4,-1.5059466E4,1.1422074E5,8.893682E4,-3.000377E4,2.2979123E5,5.0243008E4,-3.4188703E4,-1.6246514E5,2.9069502E4,-4.9378195E4,-9.886645E3,-2.3059767E5,1.5153736E5,-4.7306664E4,2.7459268E4,1.0377101E5,-1.4993803E4,-7.58852E4,6.947565E4,1.9604816E5,1.1369477E5,-3.0508645E4,-1.1065186E4,-3.022136E4,9.537111E3,-1.0721223E4,5.6425766E4,2.1100324E4,2.3877299E4,-4.8659697E3,-1.689026E4,-2.1862073E3,-3.785905E4,-2.0282117E4,-2.714259E4,-1.6510518E4,-3.2402832E4,-4.3546074E4,-2.5974824E4,-1.1498759E4,5.850287E4,-2.3811836E3,-1.7534771E4,2.554022E4,1.4976537E4,7.304165E4,9.35418E4,2.1059834E4,-2.9862183E3,-2.4373541E4,5.8391418E4,1.67098E5,4.994163E4,4.9353143E2,3.0497812E3,-1.8050676E4,-6.947116E4,-2.6968463E4,-1.6505067E3,2.5369799E4,-1.8788402E4,1.5856566E4,1.901502E4,-4.3364164E4,7.07944E4,-7.66419E4,-3.541536E4,5.5152203E4,2.971748E4,3.5266006E3,1.1579013E5,2.3321842E4,1.3036082E3,-1.7950924E4,-1.364872E4,-3.1594234E4,-3.153761E4,2.7668973E4,1.8306806E5,3.6213543E4,2.2880043E4,5.4751742E4,-2.3384408E4,1.5848422E4],"categories":[],"categories_nodes":[],"categories_segments":[],"categories_sizes":[],"default_left":[0,0,0,0,0,0,0,0,0,0,0,0,0,0,0,0,0,0,0,0,0,0,0,0,0,0,0,0,0,0,0,0,0,0,0,0,0,0,0,0,0,0,0,0,0,0,0,0,0,0,0,0,0,0,0,0,0,0,0,0,0,0,0,0,0,0,0,0,0,0,0,0,0,0,0,0,0,0,0,0,0,0,0,0,0,0,0,0,0,0,0,0,0,0,0,0,0,0,0,0,0,0,0,0,0,0,0,0,0,0,0,0,0,0,0,0,0,0,0,0,0,0,0,0,0],"id":8,"left_children":[1,3,5,7,9,11,13,15,17,19,21,23,25,27,29,31,33,35,37,39,41,43,45,47,49,51,53,55,57,59,61,63,65,67,69,71,73,75,77,79,81,83,85,87,89,91,93,95,97,99,101,103,105,107,-1,109,111,113,115,117,119,121,123,-1,-1,-1,-1,-1,-1,-1,-1,-1,-1,-1,-1,-1,-1,-1,-1,-1,-1,-1,-1,-1,-1,-1,-1,-1,-1,-1,-1,-1,-1,-1,-1,-1,-1,-1,-1,-1,-1,-1,-1,-1,-1,-1,-1,-1,-1,-1,-1,-1,-1,-1,-1,-1,-1,-1,-1,-1,-1,-1,-1,-1,-1],"loss_changes":[7.578389E12,1.8699041E12,2.018588E12,6.751574E11,1.4749134E12,8.81738E11,2.153838E12,4.4738016E11,2.3767705E11,9.5824275E11,3.3454078E12,2.0953932E11,9.5653606E11,2.209534E12,3.1460698E12,1.3880043E11,9.372615E10,1.8902994E11,1.7300796E11,7.7200255E11,6.3407784E11,3.809244E12,1.4539531E12,1.3887978E11,2.92507E11,6.3798064E11,1.5270602E11,1.2928863E12,3.5718922E11,2.950266E12,1.1882018E12,8.6918955E10,1.6871955E11,5.4507307E10,6.904269E10,2.8213222E11,1.0973164E11,5.9160986E10,1.4223671E10,5.0273636E11,7.9419435E11,3.8754494E11,5.4466445E11,1.3937693E12,1.3440245E12,9.037813E11,5.3633266E11,4.785774E10,3.434791E10,3.4005392E11,9.135753E10,1.9662699E11,6.289951E11,1.3491447E11,0E0,9.748025E11,2.1664487E12,2.1879908E11,1.356183E11,1.9921812E12,9.099939E12,1.7408924E11,1.0438732E12,0E0,0E0,0E0,0E0,0E0,0E0,0E0,0E0,0E0,0E0,0E0,0E0,0E0,0E0,0E0,0E0,0E0,0E0,0E0,0E0,0E0,0E0,0E0,0E0,0E0,0E0,0E0,0E0,0E0,0E0,0E0,0E0,0E0,0E0,0E0,0E0,0E0,0E0,0E0,0E0,0E0,0E0,0E0,0E0,0E0,0E0,0E0,0E0,0E0,0E0,0E0,0E0,0E0,0E0,0E0,0E0,0E0,0E0,0E0,0E0,0E0,0E0],"parents":[2147483647,0,0,1,1,2,2,3,3,4,4,5,5,6,6,7,7,8,8,9,9,10,10,11,11,12,12,13,13,14,14,15,15,16,16,17,17,18,18,19,19,20,20,21,21,22,22,23,23,24,24,25,25,26,26,27,27,28,28,29,29,30,30,31,31,32,32,33,33,34,34,35,35,36,36,37,37,38,38,39,39,40,40,41,41,42,42,43,43,44,44,45,45,46,46,47,47,48,48,49,49,50,50,51,51,52,52,53,53,55,55,56,56,57,57,58,58,59,59,60,60,61,61,62,62],"right_children":[2,4,6,8,10,12,14,16,18,20,22,24,26,28,30,32,34,36,38,40,42,44,46,48,50,52,54,56,58,60,62,64,66,68,70,72,74,76,78,80,82,84,86,88,90,92,94,96,98,100,102,104,106,108,-1,110,112,114,116,118,120,122,124,-1,-1,-1,-1,-1,-1,-1,-1,-1,-1,-1,-1,-1,-1,-1,-1,-1,-1,-1,-1,-1,-1,-1,-1,-1,-1,-1,-1,-1,-1,-1,-1,-1,-1,-1,-1,-1,-1,-1,-1,-1,-1,-1,-1,-1,-1,-1,-1,-1,-1,-1,-1,-1,-1,-1,-1,-1,-1,-1,-1,-1,-1],"split_conditions":[2.653E3,1.316E3,9.2E-1,1.25E0,1E0,7.199081E4,4.67073E3,1.00327E3,2.31E0,1E1,3.23798E3,1.73985E3,4E0,2.34E0,2.1E1,4.7054E2,2.126E3,1.326E3,9.77E2,1.14E0,4.561702E4,1.7E0,2.67E0,3.45E3,2.61E0,1.4E0,2.78E0,3.23798E3,2.71E0,1.4E1,4.656407E4,7.62E2,1.176E3,1.374E3,1.06E0,9.2901E2,8.0137E2,8.3565E2,2E0,3E0,1.964E3,3E0,1.06E2,1.13E0,2.63E0,4.54473E3,2.071E3,1.15E0,3.674E3,4E0,3.874E3,1.994E3,1.7E1,2.688E3,-4.7306664E4,1.19E0,1.58E0,3.531E3,3E0,2E0,1.5E1,5.69567E3,4E0,-1.1065186E4,-3.022136E4,9.537111E3,-1.0721223E4,5.6425766E4,2.1100324E4,2.3877299E4,-4.8659697E3,-1.689026E4,-2.1862073E3,-3.785905E4,-2.0282117E4,-2.714259E4,-1.6510518E4,-3.2402832E4,-4.3546074E4,-2.5974824E4,-1.1498759E4,5.850287E4,-2.3811836E3,-1.7534771E4,2.554022E4,1.4976537E4,7.304165E4,9.35418E4,2.1059834E4,-2.9862183E3,-2.4373541E4,5.8391418E4,1.67098E5,4.994163E4,4.9353143E2,3.0497812E3,-1.8050676E4,-6.947116E4,-2.6968463E4,-1.6505067E3,2.5369799E4,-1.8788402E4,1.5856566E4,1.901502E4,-4.3364164E4,7.07944E4,-7.66419E4,-3.541536E4,5.5152203E4,2.971748E4,3.5266006E3,1.1579013E5,2.3321842E4,1.3036082E3,-1.7950924E4,-1.364872E4,-3.1594234E4,-3.153761E4,2.7668973E4,1.8306806E5,3.6213543E4,2.2880043E4,5.4751742E4,-2.3384408E4,1.5848422E4],"split_indices":[0,14,9,10,12,14,14,14,10,8,14,14,2,10,6,14,0,0,0,9,14,10,10,0,10,10,10,14,10,6,14,0,0,0,10,14,14,14,2,8,3,2,11,10,10,14,0,10,0,1,0,3,11,0,0,10,10,0,1,8,6,14,1,0,0,0,0,0,0,0,0,0,0,0,0,0,0,0,0,0,0,0,0,0,0,0,0,0,0,0,0,0,0,0,0,0,0,0,0,0,0,0,0,0,0,0,0,0,0,0,0,0,0,0,0,0,0,0,0,0,0,0,0,0,0],"split_type":[0,0,0,0,0,0,0,0,0,0,0,0,0,0,0,0,0,0,0,0,0,0,0,0,0,0,0,0,0,0,0,0,0,0,0,0,0,0,0,0,0,0,0,0,0,0,0,0,0,0,0,0,0,0,0,0,0,0,0,0,0,0,0,0,0,0,0,0,0,0,0,0,0,0,0,0,0,0,0,0,0,0,0,0,0,0,0,0,0,0,0,0,0,0,0,0,0,0,0,0,0,0,0,0,0,0,0,0,0,0,0,0,0,0,0,0,0,0,0,0,0,0,0,0,0],"sum_hessian":[8E3,4.934E3,3.066E3,1.615E3,3.319E3,3.69E2,2.697E3,3.37E2,1.278E3,1.492E3,1.827E3,2.9E2,7.9E1,1.572E3,1.125E3,2.61E2,7.6E1,9.87E2,2.91E2,1.339E3,1.53E2,1.646E3,1.81E2,5E1,2.4E2,6.6E1,1.3E1,1.165E3,4.07E2,7.91E2,3.34E2,9.1E1,1.7E2,4.3E1,3.3E1,6.62E2,3.25E2,2.05E2,8.6E1,1.231E3,1.08E2,8.7E1,6.6E1,3.38E2,1.308E3,8.7E1,9.4E1,4E1,1E1,1.76E2,6.4E1,1.8E1,4.8E1,1.2E1,1E0,8.67E2,2.98E2,2.51E2,1.56E2,4.98E2,2.93E2,7.2E1,2.62E2,5.5E1,3.6E1,5.3E1,1.17E2,4E0,3.9E1,1E1,2.3E1,5.09E2,1.53E2,3.7E1,2.88E2,9.1E1,1.14E2,4.9E1,3.7E1,2.8E2,9.51E2,2.4E1,8.4E1,6.1E1,2.6E1,4.5E1,2.1E1,2.5E1,3.13E2,9.41E2,3.67E2,8E1,7E0,2.7E1,6.7E1,1.5E1,2.5E1,4E0,6E0,1.09E2,6.7E1,5.7E1,7E0,1.2E1,6E0,2E0,4.6E1,1E0,1.1E1,1.55E2,7.12E2,2.4E1,2.74E2,1.76E2,7.5E1,7.8E1,7.8E1,5.7E1,4.41E2,4.4E1,2.49E2,4.8E1,2.4E1,1.67E2,9.5E1],"tree_param":{"num_deleted":"0","num_feature":"15","num_nodes":"125","size_leaf_vector":"1"}},{"base_weights":[2.8743954E2,-3.4463316E4,1.4168244E4,-1.7912744E4,-5.065416E4,-1.7023844E4,2.6397135E4,-1.36424795E4,-1.1611114E5,-4.0524715E4,-8.62065E4,-4.98905E4,8.221423E3,-4.455859E3,4.099002E4,-3.1622984E4,8.418963E3,-1.9453367E5,-6.935971E4,-4.8349195E4,-1.4096147E4,-9.7880484E4,-6.859718E4,-2.587497E4,-1.0322518E5,-1.6386326E3,1.2684721E5,-1.6193111E4,6.293631E4,7.588101E4,4.951043E3,-2.5977178E4,-7.4531016E4,5.8481414E4,-1.0307793E4,-6.967581E4,-4.0559945E4,-3.2121428E4,-9.446951E4,-2.8941705E4,-5.625849E4,4.1900176E4,-3.777886E4,-8.363259E4,-1.2192518E5,-5.169795E4,-8.4202125E4,-4.2124234E4,1.5072375E5,-6.073448E4,-1.7109289E5,4.4960117E4,-2.0805277E4,1.8252122E5,3.681759E4,-4.5415996E4,7.597148E3,-1.0423051E4,1.2793135E5,4.423975E4,1.2465522E5,-8.01983E3,5.60702E4,-1.2794358E4,-1.163648E3,7.8693525E3,-2.6452727E4,7.723883E3,2.710311E4,2.8475752E4,-5.873991E3,-3.1496626E3,-1.7760508E4,-3.435183E4,-1.6533156E4,-1.2854195E4,-2.7400073E3,-1.3461447E4,-2.3211504E4,3.1878918E4,8.243754E3,9.481617E3,-1.8232127E4,-5.8370815E3,-2.6062105E4,-4.3788934E4,-2.6460793E4,3.5531875E3,-1.6326607E4,-2.6775479E4,-5.3630625E3,-1.0515642E4,-9.519634E4,-4.3594907E2,1.16577305E5,-2.3217082E4,1.0010377E4,-5.8214594E4,2.0512004E4,4.9322153E3,2.934849E4,-2.7766633E3,-1.9330629E4,4.7220652E4,1.3949236E5,4.534679E2,3.7468117E4,-1.9684348E4,5.9802886E3,1.7450805E4,-2.8046714E3,8.644674E3,-5.2655465E4,3.1132776E3,7.3585664E4,3.2421543E4,4.133458E3,9.404069E4,6.138426E3,-7.9917554E3,9.776464E3,9.400306E3,3.7922105E4],"categories":[],"categories_nodes":[],"categories_segments":[],"categories_sizes":[],"default_left":[0,0,0,0,0,0,0,0,0,0,0,0,0,0,0,0,0,0,0,0,0,0,0,0,0,0,0,0,0,0,0,0,0,0,0,0,0,0,0,0,0,0,0,0,0,0,0,0,0,0,0,0,0,0,0,0,0,0,0,0,0,0,0,0,0,0,0,0,0,0,0,0,0,0,0,0,0,0,0,0,0,0,0,0,0,0,0,0,0,0,0,0,0,0,0,0,0,0,0,0,0,0,0,0,0,0,0,0,0,0,0,0,0,0,0,0,0,0,0,0,0,0,0],"id":9,"left_children":[1,3,5,7,9,11,13,15,17,19,21,23,25,27,29,31,33,35,37,39,41,43,45,47,49,51,53,55,57,59,61,63,65,67,69,-1,-1,71,73,75,77,79,81,83,85,87,89,91,93,95,97,99,101,103,105,107,109,111,113,115,117,119,121,-1,-1,-1,-1,-1,-1,-1,-1,-1,-1,-1,-1,-1,-1,-1,-1,-1,-1,-1,-1,-1,-1,-1,-1,-1,-1,-1,-1,-1,-1,-1,-1,-1,-1,-1,-1,-1,-1,-1,-1,-1,-1,-1,-1,-1,-1,-1,-1,-1,-1,-1,-1,-1,-1,-1,-1,-1,-1,-1,-1],"loss_changes":[3.8599184E12,6.1113106E11,2.1815497E12,4.726817E11,4.1209142E11,1.3371011E12,1.8497447E12,4.306595E11,1.5882636E11,1.8542926E11,4.570625E10,8.939316E11,1.0669351E12,1.04513765E12,3.5066117E12,1.4292969E11,4.581064E11,6.645678E9,2.5951912E10,1.0490033E11,2.760949E11,4.153357E10,2.3336616E10,1.395235E12,6.153817E11,7.5385386E11,3.4414146E11,7.824676E11,9.358604E11,2.1813086E12,9.108311E11,1.950837E11,9.7179206E10,1.3639516E11,3.492017E11,0E0,0E0,7.576069E9,7.884669E9,5.5524442E10,1.1481291E11,5.462695E10,2.3486135E11,1.8693554E10,3.0899175E10,9.818505E9,1.6154558E10,8.529984E11,1.4846788E12,2.141746E11,4.69529E11,3.693027E11,3.0074575E11,2.3189533E11,8.6880535E10,6.678968E11,5.327403E11,6.075217E11,1.432179E12,1.6726597E12,1.0951568E13,8.295487E11,4.7971493E11,0E0,0E0,0E0,0E0,0E0,0E0,0E0,0E0,0E0,0E0,0E0,0E0,0E0,0E0,0E0,0E0,0E0,0E0,0E0,0E0,0E0,0E0,0E0,0E0,0E0,0E0,0E0,0E0,0E0,0E0,0E0,0E0,0E0,0E0,0E0,0E0,0E0,0E0,0E0,0E0,0E0,0E0,0E0,0E0,0E0,0E0,0E0,0E0,0E0,0E0,0E0,0E0,0E0,0E0,0E0,0E0,0E0,0E0,0E0,0E0],"parents":[2147483647,0,0,1,1,2,2,3,3,4,4,5,5,6,6,7,7,8,8,9,9,10,10,11,11,12,12,13,13,14,14,15,15,16,16,17,17,18,18,19,19,20,20,21,21,22,22,23,23,24,24,25,25,26,26,27,27,28,28,29,29,30,30,31,31,32,32,33,33,34,34,37,37,38,38,39,39,40,40,41,41,42,42,43,43,44,44,45,45,46,46,47,47,48,48,49,49,50,50,51,51,52,52,53,53,54,54,55,55,56,56,57,57,58,58,59,59,60,60,61,61,62,62],"right_children":[2,4,6,8,10,12,14,16,18,20,22,24,26,28,30,32,34,36,38,40,42,44,46,48,50,52,54,56,58,60,62,64,66,68,70,-1,-1,72,74,76,78,80,82,84,86,88,90,92,94,96,98,100,102,104,106,108,110,112,114,116,118,120,122,-1,-1,-1,-1,-1,-1,-1,-1,-1,-1,-1,-1,-1,-1,-1,-1,-1,-1,-1,-1,-1,-1,-1,-1,-1,-1,-1,-1,-1,-1,-1,-1,-1,-1,-1,-1,-1,-1,-1,-1,-1,-1,-1,-1,-1,-1,-1,-1,-1,-1,-1,-1,-1,-1,-1,-1,-1,-1,-1,-1],"split_conditions":[1.61374E3,1.62E0,4E0,3.352E3,1.454E3,1E0,1E0,1.00327E3,1.3467E3,1.27513E3,1.06E0,2E0,4.75663E3,3.632E3,2E0,1.827E3,1.17E0,4E0,1.17E0,1.94E0,2.17E0,1.947E3,3E0,3.727E3,2.542E3,1.82E0,2.75E0,1E0,3E0,1.4E1,5E0,6.6047E2,1.03E0,1.24163E3,1.387E3,-6.967581E4,-4.0559945E4,1.01E0,1.48423E3,8.196E2,9.33E2,1.084E3,9.77E2,1.65E0,1.48423E3,1.475E3,2.7E1,3.643E3,1.987E3,7.063182E4,1.14E0,2.44623E3,2.77E0,6.44045E3,6.0282E3,1.11E0,1.84E0,2.63E0,5.52353E3,5E0,1.8E1,3.193E3,4.561702E4,-1.2794358E4,-1.163648E3,7.8693525E3,-2.6452727E4,7.723883E3,2.710311E4,2.8475752E4,-5.873991E3,-3.1496626E3,-1.7760508E4,-3.435183E4,-1.6533156E4,-1.2854195E4,-2.7400073E3,-1.3461447E4,-2.3211504E4,3.1878918E4,8.243754E3,9.481617E3,-1.8232127E4,-5.8370815E3,-2.6062105E4,-4.3788934E4,-2.6460793E4,3.5531875E3,-1.6326607E4,-2.6775479E4,-5.3630625E3,-1.0515642E4,-9.519634E4,-4.3594907E2,1.16577305E5,-2.3217082E4,1.0010377E4,-5.8214594E4,2.0512004E4,4.9322153E3,2.934849E4,-2.7766633E3,-1.9330629E4,4.7220652E4,1.3949236E5,4.534679E2,3.7468117E4,-1.9684348E4,5.9802886E3,1.7450805E4,-2.8046714E3,8.644674E3,-5.2655465E4,3.1132776E3,7.3585664E4,3.2421543E4,4.133458E3,9.404069E4,6.138426E3,-7.9917554E3,9.776464E3,9.400306E3,3.7922105E4],"split_indices":[14,10,4,0,0,12,5,14,14,14,9,5,14,0,5,0,10,4,10,10,10,0,1,0,0,10,10,12,1,6,1,14,10,14,0,0,0,9,14,14,0,0,0,10,14,0,6,0,3,14,9,14,10,14,14,9,10,10,14,6,6,0,14,0,0,0,0,0,0,0,0,0,0,0,0,0,0,0,0,0,0,0,0,0,0,0,0,0,0,0,0,0,0,0,0,0,0,0,0,0,0,0,0,0,0,0,0,0,0,0,0,0,0,0,0,0,0,0,0,0,0,0,0],"split_type":[0,0,0,0,0,0,0,0,0,0,0,0,0,0,0,0,0,0,0,0,0,0,0,0,0,0,0,0,0,0,0,0,0,0,0,0,0,0,0,0,0,0,0,0,0,0,0,0,0,0,0,0,0,0,0,0,0,0,0,0,0,0,0,0,0,0,0,0,0,0,0,0,0,0,0,0,0,0,0,0,0,0,0,0,0,0,0,0,0,0,0,0,0,0,0,0,0,0,0,0,0,0,0,0,0,0,0,0,0,0,0,0,0,0,0,0,0,0,0,0,0,0,0],"sum_hessian":[8E3,2.283E3,5.717E3,1.13E3,1.153E3,1.61E3,4.107E3,1.084E3,4.6E1,8.99E2,2.54E2,6.99E2,9.11E2,1.319E3,2.788E3,5.97E2,4.87E2,1.6E1,3E1,6.93E2,2.06E2,1.5E2,1.04E2,4.83E2,2.16E2,8.42E2,6.9E1,1.124E3,1.95E2,1.416E3,1.372E3,5.29E2,6.8E1,1.32E2,3.55E2,8E0,8E0,1.3E1,1.7E1,2.02E2,4.91E2,6.1E1,1.45E2,9.7E1,5.3E1,5.2E1,5.2E1,4.43E2,4E1,1.34E2,8.2E1,2.45E2,5.97E2,4.2E1,2.7E1,5.04E2,6.2E2,9.2E1,1.03E2,8.6E2,5.56E2,1.095E3,2.77E2,3.01E2,2.28E2,8E0,6E1,6.6E1,6.6E1,2.8E1,3.27E2,8E0,5E0,1E1,7E0,1.18E2,8.4E1,3.21E2,1.7E2,1E1,5.1E1,3.6E1,1.09E2,5E0,9.2E1,2.9E1,2.4E1,2E0,5E1,4.8E1,4E0,4.33E2,1E1,2.5E1,1.5E1,1.14E2,2E1,7.5E1,7E0,1.6E2,8.5E1,4.73E2,1.24E2,4E1,2E0,2E1,7E0,3.85E2,1.19E2,1.55E2,4.65E2,7.5E1,1.7E1,5.2E1,5.1E1,2.77E2,5.83E2,1.97E2,3.59E2,7.51E2,3.44E2,2.06E2,7.1E1],"tree_param":{"num_deleted":"0","num_feature":"15","num_nodes":"123","size_leaf_vector":"1"}},{"base_weights":[2.1254008E2,-1.2826646E4,2.119336E4,-4.0186332E4,-7.8598037E3,-1.5433705E4,3.099218E4,-3.4203824E4,-8.534631E4,-2.6530033E4,-1.6829324E2,-6.098357E4,2.2157795E3,2.7523096E4,1.9159486E5,-4.15424E4,8.114872E3,-5.0023E4,-1.2461882E5,-2.7091154E4,9.853727E4,-1.825467E4,1.1613667E4,-3.878995E4,-1.9792016E5,-7.0633215E2,3.413573E5,3.2610734E4,-5.6288633E4,1.1335309E5,5.9797525E5,-3.8709086E4,-1.1780644E5,-9.315353E3,2.8274094E5,-2.1682018E4,-1.4338067E5,1.5549419E4,-1.6452705E5,-4.551543E4,-1.8998588E4,1.5522904E4,-2.5589312E4,-2.5875908E4,1.9899916E4,-1.178243E5,-6.972821E3,-2.6983494E5,4.3111777E4,9.618388E4,-4.823128E3,1.1561776E5,3.1387764E4,1.4373495E4,5.6994684E4,-9.195995E4,2.57367E4,-1.5666898E5,2.08108E5,7.910552E4,2.5990325E5,-1.6544818E4,-6.566665E3,-4.4305656E4,6.748442E4,-1.1558678E4,7.6264478E3,1.8714725E5,-1.3127002E4,-1.5504693E4,3.9133698E1,-1.873426E4,-4.6328164E4,2.3651113E4,-1.9051686E4,-5.2552434E4,2.48328E4,-3.494037E4,-9.679382E3,-7.451528E3,1.1939467E4,-2.2744922E3,1.116004E4,-6.6836177E3,-1.7203242E4,3.499148E4,-9.091189E3,4.0804873E3,2.1402842E4,-7.673396E4,-7.479169E3,1.798631E4,-3.778974E4,-1.1261121E5,-1.5425392E4,1.4725862E4,9.930283E4,-4.76818E3,1.0275894E4,1.2655253E4,-2.0113545E3,3.1808314E4,8.740423E3,-8.419091E3,-6.173162E4,-2.7202854E4,3.025888E4,-1.0515654E5,9.5600125E4,1.0069831E5,-1.2924482E4],"categories":[],"categories_nodes":[],"categories_segments":[],"categories_sizes":[],"default_left":[0,0,0,0,0,0,0,0,0,0,0,0,0,0,0,0,0,0,0,0,0,0,0,0,0,0,0,0,0,0,0,0,0,0,0,0,0,0,0,0,0,0,0,0,0,0,0,0,0,0,0,0,0,0,0,0,0,0,0,0,0,0,0,0,0,0,0,0,0,0,0,0,0,0,0,0,0,0,0,0,0,0,0,0,0,0,0,0,0,0,0,0,0,0,0,0,0,0,0,0,0,0,0,0,0,0,0,0,0,0,0],"id":10,"left_children":[1,3,5,7,9,11,13,15,17,19,21,23,25,27,29,31,33,35,37,39,-1,41,43,45,47,49,51,53,55,57,59,61,63,65,67,69,71,73,75,77,79,81,83,85,87,89,91,93,-1,95,97,-1,-1,99,101,103,105,107,109,-1,-1,-1,-1,-1,-1,-1,-1,-1,-1,-1,-1,-1,-1,-1,-1,-1,-1,-1,-1,-1,-1,-1,-1,-1,-1,-1,-1,-1,-1,-1,-1,-1,-1,-1,-1,-1,-1,-1,-1,-1,-1,-1,-1,-1,-1,-1,-1,-1,-1,-1,-1],"loss_changes":[2.1891278E12,6.703075E11,1.1012309E12,2.0186975E11,5.999658E11,5.2108283E11,1.3430154E12,2.087222E11,1.15842875E11,2.5171205E11,6.309672E11,5.4240307E11,4.6403355E11,1.0124123E12,1.5538095E12,1.19037624E11,4.8131326E11,1.2389195E11,2.319068E11,1.8073865E11,0E0,2.8976506E11,5.575066E11,3.939778E11,6.529759E11,1.8594182E11,1.3760266E9,9.930759E11,4.0029615E11,1.1583842E12,4.8926268E11,1.5171361E11,2.3804533E11,9.738426E10,6.954734E11,2.4873191E10,1.9070976E8,5.503865E10,9.8763014E10,3.450484E11,2.921612E11,1.04958116E11,9.9644604E10,2.0862935E11,4.74989E11,5.7030764E11,9.074689E11,4.6476598E11,0E0,1.9388701E11,1.9391839E11,0E0,0E0,7.506108E11,1.302862E12,6.850818E11,3.764636E11,1.2174425E12,1.07178086E12,0E0,0E0,0E0,0E0,0E0,0E0,0E0,0E0,0E0,0E0,0E0,0E0,0E0,0E0,0E0,0E0,0E0,0E0,0E0,0E0,0E0,0E0,0E0,0E0,0E0,0E0,0E0,0E0,0E0,0E0,0E0,0E0,0E0,0E0,0E0,0E0,0E0,0E0,0E0,0E0,0E0,0E0,0E0,0E0,0E0,0E0,0E0,0E0,0E0,0E0,0E0,0E0],"parents":[2147483647,0,0,1,1,2,2,3,3,4,4,5,5,6,6,7,7,8,8,9,9,10,10,11,11,12,12,13,13,14,14,15,15,16,16,17,17,18,18,19,19,21,21,22,22,23,23,24,24,25,25,26,26,27,27,28,28,29,29,30,30,31,31,32,32,33,33,34,34,35,35,36,36,37,37,38,38,39,39,40,40,41,41,42,42,43,43,44,44,45,45,46,46,47,47,49,49,50,50,53,53,54,54,55,55,56,56,57,57,58,58],"right_children":[2,4,6,8,10,12,14,16,18,20,22,24,26,28,30,32,34,36,38,40,-1,42,44,46,48,50,52,54,56,58,60,62,64,66,68,70,72,74,76,78,80,82,84,86,88,90,92,94,-1,96,98,-1,-1,100,102,104,106,108,110,-1,-1,-1,-1,-1,-1,-1,-1,-1,-1,-1,-1,-1,-1,-1,-1,-1,-1,-1,-1,-1,-1,-1,-1,-1,-1,-1,-1,-1,-1,-1,-1,-1,-1,-1,-1,-1,-1,-1,-1,-1,-1,-1,-1,-1,-1,-1,-1,-1,-1,-1,-1],"split_conditions":[2.653E3,9.4E-1,2E0,3E0,4E0,1E0,1.3381248E5,4E0,1.438E3,1.0320348E5,1.60035E3,1.58E2,6.0282E3,2.89E0,1.58E2,6.656637E4,6.656637E4,2.7E0,1E0,1E0,9.853727E4,1.23E0,2E0,4E1,2.006E3,1.06E0,3.392E3,4.40185E3,8E0,3E0,9E0,6E0,2.97E0,8.9E-1,2.17E3,8.8E-1,5E0,2.2E1,2.567E3,1.34E0,2.63873E3,7.83E2,2.73E0,9.5E-1,1.14E0,1.975E3,1.994E3,1.6E1,4.3111777E4,3.803E3,3.75748E3,1.1561776E5,3.1387764E4,1.69E0,5.57669E4,1.998E3,5.52353E3,3.889E3,2.003E3,7.910552E4,2.5990325E5,-1.6544818E4,-6.566665E3,-4.4305656E4,6.748442E4,-1.1558678E4,7.6264478E3,1.8714725E5,-1.3127002E4,-1.5504693E4,3.9133698E1,-1.873426E4,-4.6328164E4,2.3651113E4,-1.9051686E4,-5.2552434E4,2.48328E4,-3.494037E4,-9.679382E3,-7.451528E3,1.1939467E4,-2.2744922E3,1.116004E4,-6.6836177E3,-1.7203242E4,3.499148E4,-9.091189E3,4.0804873E3,2.1402842E4,-7.673396E4,-7.479169E3,1.798631E4,-3.778974E4,-1.1261121E5,-1.5425392E4,1.4725862E4,9.930283E4,-4.76818E3,1.0275894E4,1.2655253E4,-2.0113545E3,3.1808314E4,8.740423E3,-8.419091E3,-6.173162E4,-2.7202854E4,3.025888E4,-1.0515654E5,9.5600125E4,1.0069831E5,-1.2924482E4],"split_indices":[0,9,1,13,8,12,14,2,0,14,14,11,14,10,11,14,14,10,7,12,0,10,1,11,3,10,0,14,8,1,4,4,10,9,0,9,4,6,0,10,14,14,10,9,9,3,3,6,0,0,14,0,0,10,14,3,14,0,3,0,0,0,0,0,0,0,0,0,0,0,0,0,0,0,0,0,0,0,0,0,0,0,0,0,0,0,0,0,0,0,0,0,0,0,0,0,0,0,0,0,0,0,0,0,0,0,0,0,0,0,0],"split_type":[0,0,0,0,0,0,0,0,0,0,0,0,0,0,0,0,0,0,0,0,0,0,0,0,0,0,0,0,0,0,0,0,0,0,0,0,0,0,0,0,0,0,0,0,0,0,0,0,0,0,0,0,0,0,0,0,0,0,0,0,0,0,0,0,0,0,0,0,0,0,0,0,0,0,0,0,0,0,0,0,0,0,0,0,0,0,0,0,0,0,0,0,0,0,0,0,0,0,0,0,0,0,0,0,0,0,0,0,0,0,0],"sum_hessian":[8E3,4.934E3,3.066E3,7.57E2,4.177E3,6.47E2,2.419E3,6.7E2,8.7E1,1.218E3,2.959E3,1.8E2,4.67E2,2.369E3,5E1,5.71E2,9.9E1,4.7E1,4E1,1.217E3,1E0,1.167E3,1.792E3,1.56E2,2.4E1,4.64E2,3E0,2.234E3,1.35E2,4.3E1,7E0,5.52E2,1.9E1,9.4E1,5E0,3.7E1,1E1,9E0,3.1E1,3.7E2,8.47E2,2.08E2,9.59E2,3.24E2,1.468E3,4.4E1,1.12E2,2E1,4E0,1.8E1,4.46E2,2E0,1E0,1.279E3,9.55E2,9.4E1,4.1E1,1.1E1,3.2E1,4E0,3E0,2.78E2,2.74E2,1.8E1,1E0,5.1E1,4.3E1,2E0,3E0,1.5E1,2.2E1,2E0,8E0,5E0,4E0,3E1,1E0,5.7E1,3.13E2,7.71E2,7.6E1,1.01E2,1.07E2,8.7E2,8.9E1,9E0,3.15E2,1.309E3,1.59E2,1.7E1,2.7E1,7.2E1,4E1,1.3E1,7E0,1.6E1,2E0,3.48E2,9.8E1,5.51E2,7.28E2,3.45E2,6.1E2,6.1E1,3.3E1,1.6E1,2.5E1,8E0,3E0,2.1E1,1.1E1],"tree_param":{"num_deleted":"0","num_feature":"15","num_nodes":"111","size_leaf_vector":"1"}},{"base_weights":[2.2879335E2,-1.7129482E4,9.810141E3,3.1725385E4,-2.1133863E4,2.0955698E3,4.1166523E4,9.547579E3,1.2615388E5,-1.5327105E4,-4.3854676E4,-1.814295E4,2.009775E4,3.065273E4,1.8096808E5,2.0986271E4,-1.146268E5,8.714072E4,1.0553771E5,-4.571764E3,-3.0610309E4,-2.1333412E4,-6.0639105E4,-2.3481531E4,9.92053E4,2.0877888E5,1.4687311E4,9.2193555E4,2.1961709E4,1.12627875E5,5.075884E5,-4.2105645E4,2.9663559E4,-1.6579E5,-6.209689E4,1.8537027E5,6.6147766E4,-1.040478E4,6.0150906E4,-1.5708968E4,-4.809302E4,-5.944319E4,3.1432776E3,-4.2634773E4,-8.113259E4,-3.6726566E4,1.4812424E4,4.8535293E4,4.7437678E5,1.5356552E5,2.0679212E5,7.813255E3,1.3084518E5,-9.427194E3,1.3568323E5,1.0767614E5,1.5873978E4,-1.6303189E4,2.4210239E5,5.6644894E5,4.2657152E4,-7.378937E3,-1.9588463E4,1.5802636E4,4.404763E3,-2.1520125E4,-5.6719727E4,-2.2235004E4,-4.0055251E3,1.5268032E4,5.7890633E4,2.3588723E4,-1.3487325E3,-7.1750054E3,9.9539343E2,5.2863957E4,1.0952681E4,-7.787886E3,1.2635419E4,-1.2576764E4,-3.5207332E4,-1.3356752E4,-3.6268625E4,5.6287554E3,-1.145644E4,-2.122671E4,-9.643001E3,-2.083087E4,-3.7294125E4,-3.121201E4,-9.524586E3,-4.476158E3,2.001539E4,4.6858047E4,5.346231E2,1.3751369E4,1.7273453E5,6.576937E4,2.0809635E4,7.9010024E3,-1.0330584E4,3.387691E4,1.5506564E5,2.8377229E4,-8.776681E3,-2.7576137E4,5.280425E4,-1.1564051E4,5.0596035E4,5.28659E3,-5.375155E4,-8.149976E4,3.5470363E4,9.565165E4,-1.6674E4,4.762658E4,1.7823262E5],"categories":[],"categories_nodes":[],"categories_segments":[],"categories_sizes":[],"default_left":[0,0,0,0,0,0,0,0,0,0,0,0,0,0,0,0,0,0,0,0,0,0,0,0,0,0,0,0,0,0,0,0,0,0,0,0,0,0,0,0,0,0,0,0,0,0,0,0,0,0,0,0,0,0,0,0,0,0,0,0,0,0,0,0,0,0,0,0,0,0,0,0,0,0,0,0,0,0,0,0,0,0,0,0,0,0,0,0,0,0,0,0,0,0,0,0,0,0,0,0,0,0,0,0,0,0,0,0,0,0,0,0,0,0,0,0,0],"id":11,"left_children":[1,3,5,7,9,11,13,15,17,19,21,23,25,27,29,31,33,-1,35,37,39,41,43,45,47,49,51,53,55,57,59,61,63,65,67,69,71,73,75,77,79,81,83,85,87,89,91,93,95,97,-1,99,101,103,105,107,109,111,113,115,-1,-1,-1,-1,-1,-1,-1,-1,-1,-1,-1,-1,-1,-1,-1,-1,-1,-1,-1,-1,-1,-1,-1,-1,-1,-1,-1,-1,-1,-1,-1,-1,-1,-1,-1,-1,-1,-1,-1,-1,-1,-1,-1,-1,-1,-1,-1,-1,-1,-1,-1,-1,-1,-1,-1,-1,-1],"loss_changes":[1.3308597E12,5.574433E11,1.2471555E12,4.5114635E11,3.4644663E11,1.5083574E12,1.490755E12,2.5239465E11,1.0823408E11,3.4455663E11,2.0093993E11,1.223326E12,2.233611E12,5.050155E11,1.5276434E12,8.993861E10,3.0018945E10,0E0,1.07232985E11,4.6574076E11,2.2485133E11,2.1473113E11,1.0944617E11,9.46481E11,1.5928208E12,1.5125725E12,1.7005292E12,5.1835516E11,4.324338E11,1.00554414E12,1.7754646E11,6.514471E9,4.8524624E10,1.7622139E9,4.283568E9,2.4410194E9,2.4160035E10,2.0979004E11,2.734487E11,2.791E11,1.6518382E11,7.713928E10,9.17412E10,4.6405485E10,6.308692E10,4.611214E11,7.417819E11,3.822575E11,4.0816712E11,2.9441996E11,0E0,1.5762551E12,7.6495336E11,7.701767E10,7.688956E11,4.9689644E11,2.6840692E11,1.09715345E12,7.030136E11,1.8449433E10,0E0,0E0,0E0,0E0,0E0,0E0,0E0,0E0,0E0,0E0,0E0,0E0,0E0,0E0,0E0,0E0,0E0,0E0,0E0,0E0,0E0,0E0,0E0,0E0,0E0,0E0,0E0,0E0,0E0,0E0,0E0,0E0,0E0,0E0,0E0,0E0,0E0,0E0,0E0,0E0,0E0,0E0,0E0,0E0,0E0,0E0,0E0,0E0,0E0,0E0,0E0,0E0,0E0,0E0,0E0,0E0,0E0],"parents":[2147483647,0,0,1,1,2,2,3,3,4,4,5,5,6,6,7,7,8,8,9,9,10,10,11,11,12,12,13,13,14,14,15,15,16,16,18,18,19,19,20,20,21,21,22,22,23,23,24,24,25,25,26,26,27,27,28,28,29,29,30,30,31,31,32,32,33,33,34,34,35,35,36,36,37,37,38,38,39,39,40,40,41,41,42,42,43,43,44,44,45,45,46,46,47,47,48,48,49,49,51,51,52,52,53,53,54,54,55,55,56,56,57,57,58,58,59,59],"right_children":[2,4,6,8,10,12,14,16,18,20,22,24,26,28,30,32,34,-1,36,38,40,42,44,46,48,50,52,54,56,58,60,62,64,66,68,70,72,74,76,78,80,82,84,86,88,90,92,94,96,98,-1,100,102,104,106,108,110,112,114,116,-1,-1,-1,-1,-1,-1,-1,-1,-1,-1,-1,-1,-1,-1,-1,-1,-1,-1,-1,-1,-1,-1,-1,-1,-1,-1,-1,-1,-1,-1,-1,-1,-1,-1,-1,-1,-1,-1,-1,-1,-1,-1,-1,-1,-1,-1,-1,-1,-1,-1,-1,-1,-1,-1,-1,-1,-1],"split_conditions":[1.95113E3,1.09E0,9E0,1.43283E3,2.142E3,1E0,9.853737E4,3.31E3,2.043E3,2.06E0,1.34E0,5E0,1.22E0,1.4E0,3.889E3,3.3478E2,5.5108075E0,8.714072E4,1.03E0,1.60035E3,1.137E3,1.41998E3,3E0,1.11E0,1E1,2.96712E3,5.37059E3,4E0,1.5E1,5.5108075E0,1.62E2,7.52E2,1.04E0,1.7E1,1.37906E3,1.58028E3,3.727E3,8.6649E2,1.438E3,1.39113E3,2.86E0,3.124E3,3.323E3,1.44465E3,2.927E3,8.8E-1,2.912E3,5.7E1,3E0,1.13E0,2.0679212E5,2.56E0,8.15711E3,9E-1,9.9E-1,1.768E3,9.593488E4,5.7E1,1.11E0,1.3E1,4.2657152E4,-7.378937E3,-1.9588463E4,1.5802636E4,4.404763E3,-2.1520125E4,-5.6719727E4,-2.2235004E4,-4.0055251E3,1.5268032E4,5.7890633E4,2.3588723E4,-1.3487325E3,-7.1750054E3,9.9539343E2,5.2863957E4,1.0952681E4,-7.787886E3,1.2635419E4,-1.2576764E4,-3.5207332E4,-1.3356752E4,-3.6268625E4,5.6287554E3,-1.145644E4,-2.122671E4,-9.643001E3,-2.083087E4,-3.7294125E4,-3.121201E4,-9.524586E3,-4.476158E3,2.001539E4,4.6858047E4,5.346231E2,1.3751369E4,1.7273453E5,6.576937E4,2.0809635E4,7.9010024E3,-1.0330584E4,3.387691E4,1.5506564E5,2.8377229E4,-8.776681E3,-2.7576137E4,5.280425E4,-1.1564051E4,5.0596035E4,5.28659E3,-5.375155E4,-8.149976E4,3.5470363E4,9.565165E4,-1.6674E4,4.762658E4,1.7823262E5],"split_indices":[14,10,4,14,0,12,14,0,0,10,10,2,10,10,0,14,8,0,10,14,0,14,1,9,8,14,14,8,11,8,11,0,10,6,14,14,0,14,0,14,10,0,0,14,0,9,0,11,6,10,0,10,14,9,9,0,14,11,9,11,0,0,0,0,0,0,0,0,0,0,0,0,0,0,0,0,0,0,0,0,0,0,0,0,0,0,0,0,0,0,0,0,0,0,0,0,0,0,0,0,0,0,0,0,0,0,0,0,0,0,0,0,0,0,0,0,0],"split_type":[0,0,0,0,0,0,0,0,0,0,0,0,0,0,0,0,0,0,0,0,0,0,0,0,0,0,0,0,0,0,0,0,0,0,0,0,0,0,0,0,0,0,0,0,0,0,0,0,0,0,0,0,0,0,0,0,0,0,0,0,0,0,0,0,0,0,0,0,0,0,0,0,0,0,0,0,0,0,0,0,0,0,0,0,0,0,0,0,0,0,0,0,0,0,0,0,0,0,0,0,0,0,0,0,0,0,0,0,0,0,0,0,0,0,0,0,0],"sum_hessian":[8E3,2.845E3,5.155E3,2.15E2,2.63E3,4.138E3,1.017E3,1.75E2,4E1,2.096E3,5.34E2,1.948E3,2.19E3,9.47E2,7E1,1.61E2,1.4E1,3E0,3.7E1,1.231E3,8.65E2,2.29E2,3.05E2,1.864E3,8.4E1,6E1,2.13E3,1.16E2,8.31E2,5.9E1,1.1E1,1.9E1,1.42E2,6E0,8E0,1.1E1,2.6E1,1.13E3,1.01E2,4.68E2,3.97E2,8.9E1,1.4E2,1.64E2,1.41E2,1.385E3,4.79E2,7.5E1,9E0,5.5E1,5E0,2.012E3,1.18E2,3.5E1,8.1E1,5.4E1,7.77E2,3E1,2.9E1,9E0,2E0,1.2E1,7E0,5.5E1,8.7E1,2E0,4E0,6E0,2E0,1E0,1E1,2.2E1,4E0,5.69E2,5.61E2,1.6E1,8.5E1,3.98E2,7E1,3.66E2,3.1E1,7.3E1,1.6E1,1.02E2,3.8E1,4.3E1,1.21E2,1.13E2,2.8E1,9.4E1,1.291E3,3.05E2,1.74E2,2.2E1,5.3E1,2E0,7E0,3E1,2.5E1,1.399E3,6.13E2,1.14E2,4E0,5E0,3E1,1.2E1,6.9E1,1.6E1,3.8E1,7.71E2,6E0,1E1,2E1,2.3E1,6E0,1E0,8E0],"tree_param":{"num_deleted":"0","num_feature":"15","num_nodes":"117","size_leaf_vector":"1"}},{"base_weights":[2.8101443E2,-1.2751196E4,8.759421E3,-3.0482524E3,-2.6282904E4,5.5353545E3,7.787209E4,-8.238236E3,1.4575255E5,-1.8257549E4,-7.560069E4,1.1814285E4,-2.0702027E4,5.378218E4,2.2543683E5,3.034399E3,-2.8918564E4,1.0564216E5,5.0250922E5,-3.28478E4,-9.629041E3,-1.12950516E5,1.5629149E3,9.615566E2,3.1889447E4,-1.9603547E4,-2.60488E5,3.1167367E4,2.060758E5,1.0910887E4,3.3215425E5,-9.506895E3,5.1698766E4,-1.7911293E4,-9.889538E4,5.6718953E4,1.6599511E5,1.4658493E4,1.7503992E5,-3.099658E4,-5.420105E4,-2.2613879E4,5.3794595E3,-1.398852E5,3.410411E4,-7.61478E4,1.0910226E5,1.9057604E3,-2.2753748E5,1.9553645E3,5.236815E4,-2.5210432E4,3.6845766E4,-9.64262E4,-1.16535E4,1.0923517E5,2.0567889E4,-1.1035542E5,3.428625E5,-1.0383586E5,1.0545425E5,3.7286056E5,-6.618981E4,-3.9993813E3,4.8747508E4,-6.9958257E3,4.958166E4,-1.0206947E4,2.7088848E3,-3.686082E4,7.117219E4,2.7741346E4,-1.4668442E4,5.6819594E4,-2.0629113E4,-1.2276418E4,-4.0272703E3,-2.8962722E3,-1.3362232E4,-1.4678246E4,3.521922E3,-2.9413482E4,-6.423929E4,-4.8554926E4,3.889351E4,3.0094643E4,-4.4362977E4,-2.5188988E4,5.987214E4,-5.425564E3,2.6103582E3,-9.17468E4,-1.0096219E4,8.357725E3,-1.5190764E3,-1.5485023E4,1.9006828E4,-6.777909E3,-3.8318965E4,2.2574305E4,-5.7070766E4,3.6413765E3,1.3730708E5,-1.209516E5,1.6333632E4,4.5426105E4,1.38519E5,3.1062357E4,-6.7434375E4,4.7978492E4,1.3765045E5],"categories":[],"categories_nodes":[],"categories_segments":[],"categories_sizes":[],"default_left":[0,0,0,0,0,0,0,0,0,0,0,0,0,0,0,0,0,0,0,0,0,0,0,0,0,0,0,0,0,0,0,0,0,0,0,0,0,0,0,0,0,0,0,0,0,0,0,0,0,0,0,0,0,0,0,0,0,0,0,0,0,0,0,0,0,0,0,0,0,0,0,0,0,0,0,0,0,0,0,0,0,0,0,0,0,0,0,0,0,0,0,0,0,0,0,0,0,0,0,0,0,0,0,0,0,0,0,0,0,0,0],"id":12,"left_children":[1,3,5,7,9,11,13,15,17,19,21,23,25,27,29,31,33,35,37,39,41,43,45,47,49,51,53,55,57,59,61,63,65,67,69,71,73,-1,-1,75,-1,77,79,81,83,85,87,89,91,93,95,97,99,-1,-1,-1,101,103,105,107,-1,109,-1,-1,-1,-1,-1,-1,-1,-1,-1,-1,-1,-1,-1,-1,-1,-1,-1,-1,-1,-1,-1,-1,-1,-1,-1,-1,-1,-1,-1,-1,-1,-1,-1,-1,-1,-1,-1,-1,-1,-1,-1,-1,-1,-1,-1,-1,-1,-1,-1],"loss_changes":[8.841612E11,4.1403194E11,1.0798188E12,1.42064E12,5.198788E11,7.6349755E11,7.557171E11,4.1434517E11,8.341122E11,1.4244538E11,5.304733E11,8.1458627E11,2.3063701E11,6.376223E11,6.831857E11,7.0296306E11,4.8117786E11,1.5888653E11,1.9184707E11,1.0960729E11,1.3926808E11,4.9591838E11,5.1808243E11,5.2427375E11,8.041684E11,2.8325125E11,4.1535603E10,5.712824E11,1.0766428E12,4.664141E11,5.323033E11,6.046992E11,2.0145908E12,2.3600628E11,7.141245E11,1.2912684E11,1.5037838E11,0E0,0E0,7.217637E10,0E0,1.0840505E11,1.1524966E11,3.051841E11,3.9541526E11,4.7050418E11,4.7089723E11,3.28772E11,1.414898E11,9.723131E10,8.933398E11,2.1500186E11,7.206647E11,0E0,0E0,0E0,5.840329E11,4.080023E11,3.16941E11,2.4900582E11,0E0,2.7444668E11,0E0,0E0,0E0,0E0,0E0,0E0,0E0,0E0,0E0,0E0,0E0,0E0,0E0,0E0,0E0,0E0,0E0,0E0,0E0,0E0,0E0,0E0,0E0,0E0,0E0,0E0,0E0,0E0,0E0,0E0,0E0,0E0,0E0,0E0,0E0,0E0,0E0,0E0,0E0,0E0,0E0,0E0,0E0,0E0,0E0,0E0,0E0,0E0,0E0],"parents":[2147483647,0,0,1,1,2,2,3,3,4,4,5,5,6,6,7,7,8,8,9,9,10,10,11,11,12,12,13,13,14,14,15,15,16,16,17,17,18,18,19,19,20,20,21,21,22,22,23,23,24,24,25,25,26,26,27,27,28,28,29,29,30,30,31,31,32,32,33,33,34,34,35,35,36,36,39,39,41,41,42,42,43,43,44,44,45,45,46,46,47,47,48,48,49,49,50,50,51,51,52,52,56,56,57,57,58,58,59,59,61,61],"right_children":[2,4,6,8,10,12,14,16,18,20,22,24,26,28,30,32,34,36,38,40,42,44,46,48,50,52,54,56,58,60,62,64,66,68,70,72,74,-1,-1,76,-1,78,80,82,84,86,88,90,92,94,96,98,100,-1,-1,-1,102,104,106,108,-1,110,-1,-1,-1,-1,-1,-1,-1,-1,-1,-1,-1,-1,-1,-1,-1,-1,-1,-1,-1,-1,-1,-1,-1,-1,-1,-1,-1,-1,-1,-1,-1,-1,-1,-1,-1,-1,-1,-1,-1,-1,-1,-1,-1,-1,-1,-1,-1,-1,-1],"split_conditions":[5E0,1.8E1,9.853737E4,1.7E1,5.986556E4,2.62E0,4E0,2E0,3E0,1.569E3,1.0080668E5,1.09E0,3.985E3,5E0,1.2E1,1.4E1,5.986556E4,4.31183E3,7.62E2,5.046233E4,2.5847E3,9E0,9.9E1,9.593488E4,2.248E3,6.656637E4,3E0,2.637E3,1.5E0,3.698E3,2.74E0,3.905E3,1E0,2.489E3,2.017E3,2.964E3,2.014E3,1.4658493E4,1.7503992E5,2.5E1,-5.420105E4,1.87E0,1E0,1.28E2,1.987E3,1E0,1.971E3,1E0,1.01E0,1.24E0,1.055E3,5.756998E4,2.011E3,-9.64262E4,-1.16535E4,1.0923517E5,2.024E3,1E0,1.07E0,5E0,1.0545425E5,3.095E3,-6.618981E4,-3.9993813E3,4.8747508E4,-6.9958257E3,4.958166E4,-1.0206947E4,2.7088848E3,-3.686082E4,7.117219E4,2.7741346E4,-1.4668442E4,5.6819594E4,-2.0629113E4,-1.2276418E4,-4.0272703E3,-2.8962722E3,-1.3362232E4,-1.4678246E4,3.521922E3,-2.9413482E4,-6.423929E4,-4.8554926E4,3.889351E4,3.0094643E4,-4.4362977E4,-2.5188988E4,5.987214E4,-5.425564E3,2.6103582E3,-9.17468E4,-1.0096219E4,8.357725E3,-1.5190764E3,-1.5485023E4,1.9006828E4,-6.777909E3,-3.8318965E4,2.2574305E4,-5.7070766E4,3.6413765E3,1.3730708E5,-1.209516E5,1.6333632E4,4.5426105E4,1.38519E5,3.1062357E4,-6.7434375E4,4.7978492E4,1.3765045E5],"split_indices":[4,6,14,6,14,10,2,5,13,0,14,9,0,1,6,6,14,14,0,14,14,8,11,14,14,14,1,0,10,0,10,0,5,0,3,0,3,0,0,6,0,10,13,11,3,7,3,12,9,10,0,14,3,0,0,0,3,5,9,1,0,0,0,0,0,0,0,0,0,0,0,0,0,0,0,0,0,0,0,0,0,0,0,0,0,0,0,0,0,0,0,0,0,0,0,0,0,0,0,0,0,0,0,0,0,0,0,0,0,0,0],"split_type":[0,0,0,0,0,0,0,0,0,0,0,0,0,0,0,0,0,0,0,0,0,0,0,0,0,0,0,0,0,0,0,0,0,0,0,0,0,0,0,0,0,0,0,0,0,0,0,0,0,0,0,0,0,0,0,0,0,0,0,0,0,0,0,0,0,0,0,0,0,0,0,0,0,0,0,0,0,0,0,0,0,0,0,0,0,0,0,0,0,0,0,0,0,0,0,0,0,0,0,0,0,0,0,0,0,0,0,0,0,0,0],"sum_hessian":[8E3,3.153E3,4.847E3,1.837E3,1.316E3,4.632E3,2.15E2,1.776E3,6.1E1,1.133E3,1.83E2,3.738E3,8.94E2,1.86E2,2.9E1,1.15E3,6.26E2,5.6E1,5E0,4.2E2,7.13E2,1.23E2,6E1,2.427E3,1.311E3,8.91E2,3E0,1.63E2,2.3E1,1E1,1.9E1,9.15E2,2.35E2,5.42E2,8.4E1,3.2E1,2.4E1,1E0,4E0,4.16E2,4E0,3.82E2,3.31E2,1.04E2,1.9E1,3.5E1,2.5E1,2.418E3,9E0,5.33E2,7.78E2,8.11E2,8E1,2E0,1E0,4E0,1.59E2,7E0,1.6E1,8E0,2E0,1.8E1,1E0,8.96E2,1.9E1,1.42E2,9.3E1,3.39E2,2.03E2,7.9E1,5E0,2.4E1,8E0,2.2E1,2E0,2.65E2,1.51E2,2.41E2,1.41E2,3.4E1,2.97E2,6.8E1,3.6E1,6E0,1.3E1,1E1,2.5E1,8E0,1.7E1,6.13E2,1.805E3,6E0,3E0,1.13E2,4.2E2,7.4E1,7.04E2,7.92E2,1.9E1,6.9E1,1.1E1,1.57E2,2E0,2E0,5E0,7E0,9E0,3E0,5E0,6E0,1.2E1],"tree_param":{"num_deleted":"0","num_feature":"15","num_nodes":"111","size_leaf_vector":"1"}},{"base_weights":[2.4775038E2,-4.732722E3,2.017571E4,-1.7175064E4,1.4010726E3,9.0617E3,7.12063E4,-3.0760979E4,-5.518324E3,1.7210883E4,-1.4409391E4,-7.386037E3,2.2333965E4,7.5591636E3,1.0864539E5,-1.8145717E4,-6.598366E4,-9.797964E3,7.589163E4,-3.361837E4,2.5238816E4,-1.0496177E4,-5.5811566E4,6.395425E3,-2.072797E4,6.9662484E4,1.07464E4,1.4320922E5,-3.3390363E4,7.83914E4,2.3174362E5,-1.5839807E4,-4.324673E4,-1.2049578E5,-4.4933684E4,-5.0254214E3,-8.83099E4,-1.3547792E5,1.4786028E5,-9.92296E4,-1.3348181E4,1.833505E5,1.3695233E4,-1.1549244E4,1.0381822E5,-2.3250117E4,-1.409093E5,-1.5929066E2,4.5103254E4,-2.8971155E3,-4.4526242E4,5.5006125E4,2.817676E5,1.9960938E4,-2.48298E4,2.6139044E5,-6.0201637E4,5.0078164E4,-1.16063875E5,6.279748E4,4.317832E5,1.9609384E5,2.0010984E5,-3.7391475E3,-1.1664365E4,-7.5361807E3,-1.934115E4,-1.4516458E4,-9.458884E4,6.5593047E3,-2.209664E4,4.351108E4,-1.727259E3,-3.6811574E4,7.594926E4,-1.1998416E4,-1.1641742E5,1.4263306E4,8.162184E4,-5.6273633E4,-2.261111E4,-7.734055E2,-2.3467547E4,4.545747E4,1.22627516E5,-3.3830496E3,1.1604105E4,-1.0762166E3,-7.435502E3,1.6727992E4,1.3812128E5,-2.1293074E4,3.4439937E3,2.8956549E4,-6.035206E4,1.2505912E3,-1.3501537E4,4.6485457E4,7.821305E3,1.9962257E3,-1.03747295E4,-6.3315635E3,-1.9464447E4,-3.1222234E4,2.0158496E4,5.337911E2,2.5234533E5,3.1389275E0,1.309738E4,-1.3344683E4,8.0297144E3,-4.5680383E4,8.973566E4,5.3225496E4,-5.6215273E4,-3.1810016E4,2.8760152E4,1.5812556E4,-6.3533547E4,2.3947094E4,-5.8736668E4,1.8403542E5,1.3689362E4,1.1067822E4,7.997393E4],"categories":[],"categories_nodes":[],"categories_segments":[],"categories_sizes":[],"default_left":[0,0,0,0,0,0,0,0,0,0,0,0,0,0,0,0,0,0,0,0,0,0,0,0,0,0,0,0,0,0,0,0,0,0,0,0,0,0,0,0,0,0,0,0,0,0,0,0,0,0,0,0,0,0,0,0,0,0,0,0,0,0,0,0,0,0,0,0,0,0,0,0,0,0,0,0,0,0,0,0,0,0,0,0,0,0,0,0,0,0,0,0,0,0,0,0,0,0,0,0,0,0,0,0,0,0,0,0,0,0,0,0,0,0,0,0,0,0,0,0,0,0,0,0,0],"id":13,"left_children":[1,3,5,7,9,11,13,15,17,19,21,23,25,27,29,31,33,35,37,39,41,43,45,47,49,51,53,55,57,59,61,63,65,67,69,71,73,75,77,79,81,83,85,87,89,91,93,95,97,99,101,103,105,107,109,111,113,115,117,119,121,-1,123,-1,-1,-1,-1,-1,-1,-1,-1,-1,-1,-1,-1,-1,-1,-1,-1,-1,-1,-1,-1,-1,-1,-1,-1,-1,-1,-1,-1,-1,-1,-1,-1,-1,-1,-1,-1,-1,-1,-1,-1,-1,-1,-1,-1,-1,-1,-1,-1,-1,-1,-1,-1,-1,-1,-1,-1,-1,-1,-1,-1,-1,-1],"loss_changes":[7.942E11,4.8861685E11,9.068018E11,3.3461915E11,1.0723283E12,2.8722777E11,6.806856E11,4.324817E11,3.9757716E11,8.761241E11,3.4693756E11,1.08248924E11,3.9850276E11,5.9914604E11,6.521916E11,4.098905E10,2.894877E11,4.0535792E11,8.871147E11,3.8835152E11,3.3795387E12,2.372657E11,5.093414E11,7.358563E10,1.2674972E11,4.2904355E11,1.925971E11,6.1671965E11,5.7856505E11,7.774564E11,3.363221E11,5.093286E10,2.1462753E10,9.820508E11,3.6038092E11,1.1311392E11,7.592618E11,3.4623717E11,5.228658E11,1.3131029E11,1.5701384E11,8.419549E11,1.0785873E12,2.047722E11,2.827921E11,2.2458493E11,7.491564E11,4.8515903E10,8.37679E10,5.228296E10,5.965349E10,2.687592E11,1.4080909E12,2.203086E11,1.238821E11,2.9525292E11,3.3545663E11,3.103892E11,6.8962976E11,6.3641407E11,3.9291663E11,0E0,3.5903203E11,0E0,0E0,0E0,0E0,0E0,0E0,0E0,0E0,0E0,0E0,0E0,0E0,0E0,0E0,0E0,0E0,0E0,0E0,0E0,0E0,0E0,0E0,0E0,0E0,0E0,0E0,0E0,0E0,0E0,0E0,0E0,0E0,0E0,0E0,0E0,0E0,0E0,0E0,0E0,0E0,0E0,0E0,0E0,0E0,0E0,0E0,0E0,0E0,0E0,0E0,0E0,0E0,0E0,0E0,0E0,0E0,0E0,0E0,0E0,0E0,0E0,0E0],"parents":[2147483647,0,0,1,1,2,2,3,3,4,4,5,5,6,6,7,7,8,8,9,9,10,10,11,11,12,12,13,13,14,14,15,15,16,16,17,17,18,18,19,19,20,20,21,21,22,22,23,23,24,24,25,25,26,26,27,27,28,28,29,29,30,30,31,31,32,32,33,33,34,34,35,35,36,36,37,37,38,38,39,39,40,40,41,41,42,42,43,43,44,44,45,45,46,46,47,47,48,48,49,49,50,50,51,51,52,52,53,53,54,54,55,55,56,56,57,57,58,58,59,59,60,60,62,62],"right_children":[2,4,6,8,10,12,14,16,18,20,22,24,26,28,30,32,34,36,38,40,42,44,46,48,50,52,54,56,58,60,62,64,66,68,70,72,74,76,78,80,82,84,86,88,90,92,94,96,98,100,102,104,106,108,110,112,114,116,118,120,122,-1,124,-1,-1,-1,-1,-1,-1,-1,-1,-1,-1,-1,-1,-1,-1,-1,-1,-1,-1,-1,-1,-1,-1,-1,-1,-1,-1,-1,-1,-1,-1,-1,-1,-1,-1,-1,-1,-1,-1,-1,-1,-1,-1,-1,-1,-1,-1,-1,-1,-1,-1,-1,-1,-1,-1,-1,-1,-1,-1,-1,-1,-1,-1],"split_conditions":[9E0,1E0,4.884808E4,2E0,2E0,2.15065E3,1.978E3,2.827077E4,9.853737E4,3E0,3E0,1.464E3,1.68E0,6E0,5E0,1.66E2,1.2E1,7.380266E4,1.3E0,2E0,5E0,3.965E3,3.059E3,1.50272E3,1.6E0,3.803E3,2.156288E4,1.969E3,7.063182E4,1.74E2,1.07E0,2.75E0,1.754E3,3.293E3,1.53E0,6E0,1E1,2.004E3,3.56E3,9.9E-1,2.73E0,6.132511E4,1.4E1,2.26E0,2.011E3,3E0,4E0,2.77E0,1.79E0,3.155E3,3E0,1.06E0,4E0,3.59826E3,8E0,1.953E3,1E0,1.58E0,1E0,2.89E0,1.987E3,1.9609384E5,1.74E0,-3.7391475E3,-1.1664365E4,-7.5361807E3,-1.934115E4,-1.4516458E4,-9.458884E4,6.5593047E3,-2.209664E4,4.351108E4,-1.727259E3,-3.6811574E4,7.594926E4,-1.1998416E4,-1.1641742E5,1.4263306E4,8.162184E4,-5.6273633E4,-2.261111E4,-7.734055E2,-2.3467547E4,4.545747E4,1.22627516E5,-3.3830496E3,1.1604105E4,-1.0762166E3,-7.435502E3,1.6727992E4,1.3812128E5,-2.1293074E4,3.4439937E3,2.8956549E4,-6.035206E4,1.2505912E3,-1.3501537E4,4.6485457E4,7.821305E3,1.9962257E3,-1.03747295E4,-6.3315635E3,-1.9464447E4,-3.1222234E4,2.0158496E4,5.337911E2,2.5234533E5,3.1389275E0,1.309738E4,-1.3344683E4,8.0297144E3,-4.5680383E4,8.973566E4,5.3225496E4,-5.6215273E4,-3.1810016E4,2.8760152E4,1.5812556E4,-6.3533547E4,2.3947094E4,-5.8736668E4,1.8403542E5,1.3689362E4,1.1067822E4,7.997393E4],"split_indices":[8,5,14,2,5,14,3,14,14,6,13,0,10,6,1,11,6,14,10,13,6,0,0,14,10,0,14,3,14,11,10,10,0,0,10,11,4,3,0,9,10,14,6,10,3,1,6,10,10,0,1,10,2,14,4,3,7,10,7,10,3,0,10,0,0,0,0,0,0,0,0,0,0,0,0,0,0,0,0,0,0,0,0,0,0,0,0,0,0,0,0,0,0,0,0,0,0,0,0,0,0,0,0,0,0,0,0,0,0,0,0,0,0,0,0,0,0,0,0,0,0,0,0,0,0],"split_type":[0,0,0,0,0,0,0,0,0,0,0,0,0,0,0,0,0,0,0,0,0,0,0,0,0,0,0,0,0,0,0,0,0,0,0,0,0,0,0,0,0,0,0,0,0,0,0,0,0,0,0,0,0,0,0,0,0,0,0,0,0,0,0,0,0,0,0,0,0,0,0,0,0,0,0,0,0,0,0,0,0,0,0,0,0,0,0,0,0,0,0,0,0,0,0,0,0,0,0,0,0,0,0,0,0,0,0,0,0,0,0,0,0,0,0,0,0,0,0,0,0,0,0,0,0],"sum_hessian":[8E3,6.401E3,1.599E3,2.113E3,4.288E3,1.314E3,2.85E2,9.75E2,1.138E3,2.144E3,2.144E3,5.87E2,7.27E2,1.06E2,1.79E2,7.19E2,2.56E2,1.082E3,5.6E1,2.92E2,1.852E3,1.96E3,1.84E2,2.89E2,2.98E2,1.42E2,5.85E2,2.4E1,8.2E1,1.45E2,3.4E1,6.6E2,5.9E1,7E1,1.86E2,1.021E3,6.1E1,1.4E1,4.2E1,6.8E1,2.24E2,1.25E2,1.727E3,1.943E3,1.7E1,1.34E2,5E1,2.48E2,4.1E1,1.71E2,1.27E2,1.34E2,8E0,4.65E2,1.2E2,1.5E1,9E0,4.1E1,4.1E1,1.4E2,5E0,1E0,3.3E1,5.77E2,8.3E1,3.3E1,2.6E1,5.2E1,1.8E1,5.6E1,1.3E2,4E0,1.017E3,5.6E1,5E0,1.1E1,3E0,2.4E1,1.8E1,1.3E1,5.5E1,1.93E2,3.1E1,1.11E2,1.4E1,8.64E2,8.63E2,1.214E3,7.29E2,1.6E1,1E0,5.6E1,7.8E1,1E1,4E1,2.27E2,2.1E1,5E0,3.6E1,1.32E2,3.9E1,6E1,6.7E1,9E0,1.25E2,6E0,2E0,2.53E2,2.12E2,8.7E1,3.3E1,1E0,1.4E1,3E0,6E0,9E0,3.2E1,1.5E1,2.6E1,1.32E2,8E0,3E0,2E0,1E1,2.3E1],"tree_param":{"num_deleted":"0","num_feature":"15","num_nodes":"125","size_leaf_vector":"1"}},{"base_weights":[2.6710855E2,-1.3721466E4,5.940629E3,-1.4835612E4,1.0277345E5,-5.777865E3,1.7898205E4,5.088544E4,-1.6266638E4,1.4268883E4,2.903877E5,1.1978326E4,-1.5076115E4,-2.0933965E4,2.5423506E4,6.8085586E4,-7.066361E4,-1.3071078E4,-4.25958E4,9.0741375E4,-7.354628E4,1.3309462E5,1.9358916E4,-1.2568003E3,5.590825E4,-5.810152E2,-2.561868E4,-2.284124E4,8.278494E4,1.6798799E4,5.963277E4,5.2546727E4,8.354201E4,-1.6689E4,9.016378E3,-5.127066E4,6.820641E4,5.6788125E3,5.8694965E4,1.39778E4,-4.9369445E4,3.1191033E3,-4.5898273E4,2.736053E5,4.0460043E4,-7.0178623E3,7.7092766E4,-1.8232375E4,-4.5262574E4,-3.2199996E4,9.545563E3,-1.5686453E4,2.40513E4,1.3789912E5,4.6888348E4,5.77683E3,3.5353273E4,-3.159669E3,-1.0929375E4,-7.4277515E3,8.942759E3,-1.2459077E4,-3.933484E4,6.197839E4,-7.290075E4,1.0980488E4,-5.6799004E3,-2.9461764E4,1.9972557E4,-3.0935999E3,6.396059E3,-1.168957E4,-3.3313645E4,1.15617E4,9.2041445E4,2.6382463E4,7.6616206E3,-4.242016E3,1.7535045E3,3.312346E4,8.398196E3,-2.502417E2,-9.262061E3,-1.0190377E4,-2.1421295E4,-2.1670414E4,-7.5202246E3,-1.2026183E4,8.861397E3,-2.6706436E3,-3.1816697E4,1.1404943E4,8.921432E2,-1.2391466E4,5.7424832E4,1.0299595E4,3.5449324E4],"categories":[],"categories_nodes":[],"categories_segments":[],"categories_sizes":[],"default_left":[0,0,0,0,0,0,0,0,0,0,0,0,0,0,0,0,0,0,0,0,0,0,0,0,0,0,0,0,0,0,0,0,0,0,0,0,0,0,0,0,0,0,0,0,0,0,0,0,0,0,0,0,0,0,0,0,0,0,0,0,0,0,0,0,0,0,0,0,0,0,0,0,0,0,0,0,0,0,0,0,0,0,0,0,0,0,0,0,0,0,0,0,0,0,0,0,0],"id":14,"left_children":[1,3,5,7,9,11,13,15,17,19,21,23,25,27,29,31,-1,33,35,37,39,-1,-1,41,43,45,47,49,-1,51,53,55,-1,57,59,61,63,65,-1,67,-1,69,71,73,75,77,79,81,83,85,87,89,91,93,95,-1,-1,-1,-1,-1,-1,-1,-1,-1,-1,-1,-1,-1,-1,-1,-1,-1,-1,-1,-1,-1,-1,-1,-1,-1,-1,-1,-1,-1,-1,-1,-1,-1,-1,-1,-1,-1,-1,-1,-1,-1,-1],"loss_changes":[6.350766E11,3.0121538E11,7.978339E11,2.1601065E11,3.6116025E11,4.7501246E11,8.240188E11,2.574432E11,1.8790869E11,1.141208E11,2.1367816E11,5.7509275E11,2.8850084E11,2.656405E11,6.9559924E11,1.390189E11,0E0,1.5989201E11,2.3610583E11,7.920301E10,6.603077E10,0E0,0E0,1.4880208E11,7.590635E11,3.9852055E11,1.5776449E11,1.3852103E11,0E0,4.4495326E11,4.673274E11,9.555156E10,0E0,2.084366E11,1.9878347E11,1.6954334E11,8.254206E11,5.259377E9,0E0,3.6040913E10,0E0,1.6987559E11,2.6386514E10,1.0523745E11,1.5007859E11,6.7508986E10,9.669968E10,1.7504161E11,8.556256E10,9.927426E10,1.0338903E11,2.105728E11,4.5407037E11,6.408764E11,3.6288017E11,0E0,0E0,0E0,0E0,0E0,0E0,0E0,0E0,0E0,0E0,0E0,0E0,0E0,0E0,0E0,0E0,0E0,0E0,0E0,0E0,0E0,0E0,0E0,0E0,0E0,0E0,0E0,0E0,0E0,0E0,0E0,0E0,0E0,0E0,0E0,0E0,0E0,0E0,0E0,0E0,0E0,0E0],"parents":[2147483647,0,0,1,1,2,2,3,3,4,4,5,5,6,6,7,7,8,8,9,9,10,10,11,11,12,12,13,13,14,14,15,15,17,17,18,18,19,19,20,20,23,23,24,24,25,25,26,26,27,27,29,29,30,30,31,31,33,33,34,34,35,35,36,36,37,37,39,39,41,41,42,42,43,43,44,44,45,45,46,46,47,47,48,48,49,49,50,50,51,51,52,52,53,53,54,54],"right_children":[2,4,6,8,10,12,14,16,18,20,22,24,26,28,30,32,-1,34,36,38,40,-1,-1,42,44,46,48,50,-1,52,54,56,-1,58,60,62,64,66,-1,68,-1,70,72,74,76,78,80,82,84,86,88,90,92,94,96,-1,-1,-1,-1,-1,-1,-1,-1,-1,-1,-1,-1,-1,-1,-1,-1,-1,-1,-1,-1,-1,-1,-1,-1,-1,-1,-1,-1,-1,-1,-1,-1,-1,-1,-1,-1,-1,-1,-1,-1,-1,-1],"split_conditions":[4E0,3.965E3,2.91132E3,1.05E0,3E0,1.51E0,1.424E3,8.697069E4,2.8E0,2E0,1E0,1.78927E3,1.454E3,1E0,9E0,6.758684E4,-7.066361E4,4E0,9.187904E4,1.09E0,1.07E0,1.3309462E5,1.9358916E4,3.182E3,2.142E3,1.88429E3,2.35E0,1.32E2,8.278494E4,2E0,1.49E0,3E0,8.354201E4,3.344939E4,5E0,3.618E3,1.07E0,8.1E1,5.8694965E4,1.956E3,-4.9369445E4,1.0918E3,1.4E0,1.82417E3,2.858E3,1.18487E3,2.78E0,2.142E3,4E0,6.46E2,1.973E3,2.019E3,1.8E1,9.9E-1,1.13E0,5.77683E3,3.5353273E4,-3.159669E3,-1.0929375E4,-7.4277515E3,8.942759E3,-1.2459077E4,-3.933484E4,6.197839E4,-7.290075E4,1.0980488E4,-5.6799004E3,-2.9461764E4,1.9972557E4,-3.0935999E3,6.396059E3,-1.168957E4,-3.3313645E4,1.15617E4,9.2041445E4,2.6382463E4,7.6616206E3,-4.242016E3,1.7535045E3,3.312346E4,8.398196E3,-2.502417E2,-9.262061E3,-1.0190377E4,-2.1421295E4,-2.1670414E4,-7.5202246E3,-1.2026183E4,8.861397E3,-2.6706436E3,-3.1816697E4,1.1404943E4,8.921432E2,-1.2391466E4,5.7424832E4,1.0299595E4,3.5449324E4],"split_indices":[8,0,14,10,8,10,0,14,10,2,12,14,0,12,4,14,0,2,14,9,9,0,0,0,0,14,10,11,0,1,10,2,0,14,1,0,9,11,0,3,0,14,10,14,0,14,10,0,1,0,3,3,6,9,9,0,0,0,0,0,0,0,0,0,0,0,0,0,0,0,0,0,0,0,0,0,0,0,0,0,0,0,0,0,0,0,0,0,0,0,0,0,0,0,0,0,0],"split_type":[0,0,0,0,0,0,0,0,0,0,0,0,0,0,0,0,0,0,0,0,0,0,0,0,0,0,0,0,0,0,0,0,0,0,0,0,0,0,0,0,0,0,0,0,0,0,0,0,0,0,0,0,0,0,0,0,0,0,0,0,0,0,0,0,0,0,0,0,0,0,0,0,0,0,0,0,0,0,0,0,0,0,0,0,0,0,0,0,0,0,0,0,0,0,0,0,0],"sum_hessian":[8E3,2.308E3,5.692E3,2.287E3,2.1E1,2.875E3,2.817E3,4.8E1,2.239E3,1.5E1,6E0,9.88E2,1.887E3,4.57E2,2.36E3,4.6E1,2E0,1.998E3,2.41E2,8E0,7E0,3E0,3E0,7.6E2,2.28E2,7.95E2,1.092E3,4.55E2,2E0,1.886E3,4.74E2,4.4E1,2E0,1.717E3,2.81E2,2.24E2,1.7E1,5E0,3E0,4E0,3E0,6.93E2,6.7E1,1.4E1,2.14E2,7.35E2,6E1,7.95E2,2.97E2,3.53E2,1.02E2,3.44E2,1.542E3,6.5E1,4.09E2,3E1,1.4E1,1.31E3,4.07E2,1.07E2,1.74E2,2.01E2,2.3E1,1.2E1,5E0,2E0,3E0,1E0,3E0,3.99E2,2.94E2,6.2E1,5E0,2E0,1.2E1,5E1,1.64E2,4.73E2,2.62E2,3.5E1,2.5E1,3.35E2,4.6E2,2.09E2,8.8E1,5.2E1,3.01E2,2.9E1,7.3E1,3.21E2,2.3E1,9.27E2,6.15E2,1.5E1,5E1,3.49E2,6E1],"tree_param":{"num_deleted":"0","num_feature":"15",